{"learner":{"attributes":{},"feature_names":[],"feature_types":[],"gradient_booster":{"model":{"cats":{"enc":[],"feature_segments":[],"sorted_idx":[]},"gbtree_model_param":{"num_parallel_tree":"1","num_trees":"200"},"iteration_indptr":[0,1,2,3,4,5,6,7,8,9,10,11,12,13,14,15,16,17,18,19,20,21,22,23,24,25,26,27,28,29,30,31,32,33,34,35,36,37,38,39,40,41,42,43,44,45,46,47,48,49,50,51,52,53,54,55,56,57,58,59,60,61,62,63,64,65,66,67,68,69,70,71,72,73,74,75,76,77,78,79,80,81,82,83,84,85,86,87,88,89,90,91,92,93,94,95,96,97,98,99,100,101,102,103,104,105,106,107,108,109,110,111,112,113,114,115,116,117,118,119,120,121,122,123,124,125,126,127,128,129,130,131,132,133,134,135,136,137,138,139,140,141,142,143,144,145,146,147,148,149,150,151,152,153,154,155,156,157,158,159,160,161,162,163,164,165,166,167,168,169,170,171,172,173,174,175,176,177,178,179,180,181,182,183,184,185,186,187,188,189,190,191,192,193,194,195,196,197,198,199,200],"tree_info":[0,0,0,0,0,0,0,0,0,0,0,0,0,0,0,0,0,0,0,0,0,0,0,0,0,0,0,0,0,0,0,0,0,0,0,0,0,0,0,0,0,0,0,0,0,0,0,0,0,0,0,0,0,0,0,0,0,0,0,0,0,0,0,0,0,0,0,0,0,0,0,0,0,0,0,0,0,0,0,0,0,0,0,0,0,0,0,0,0,0,0,0,0,0,0,0,0,0,0,0,0,0,0,0,0,0,0,0,0,0,0,0,0,0,0,0,0,0,0,0,0,0,0,0,0,0,0,0,0,0,0,0,0,0,0,0,0,0,0,0,0,0,0,0,0,0,0,0,0,0,0,0,0,0,0,0,0,0,0,0,0,0,0,0,0,0,0,0,0,0,0,0,0,0,0,0,0,0,0,0,0,0,0,0,0,0,0,0,0,0,0,0,0,0,0,0,0,0,0,0],"trees":[{"base_weights":[-1.5763211E-8,-9.5875E-1,4.676829E-1,9.965276E-2,9.590476E-1],"categories":[],"categories_nodes":[],"categories_segments":[],"categories_sizes":[],"default_left":[0,0,0,0,0],"id":0,"left_children":[1,-1,3,-1,-1],"loss_changes":[5.47037E1,0E0,1.4733067E1,0E0,0E0],"parents":[2147483647,0,0,2,2],"right_children":[2,-1,4,-1,-1],"split_conditions":[3E0,-9.5875E-1,1.7E0,9.965276E-2,9.590476E-1],"split_indices":[2,0,3,0,0],"split_type":[0,0,0,0,0],"sum_hessian":[1.2E2,3.9E1,8.1E1,4.7E1,3.4E1],"tree_param":{"num_deleted":"0","num_feature":"4","num_nodes":"5","size_leaf_vector":"1"}},{"base_weights":[8.260455E-4,-5.7936963E-2,1.5289424E-1,-2.3968756E-2,-8.448372E-2,5.975116E-1,5.563223E-2],"categories":[],"categories_nodes":[],"categories_segments":[],"categories_sizes":[],"default_left":[0,0,0,0,0,0,0],"id":1,"left_children":[1,3,5,-1,-1,-1,-1],"loss_changes":[1.0901122E0,7.732865E-2,1.437068E0,0E0,0E0,0E0,0E0],"parents":[2147483647,0,0,1,1,2,2],"right_children":[2,4,6,-1,-1,-1,-1],"split_conditions":[5E0,3E0,1.7E0,-2.3968756E-2,-8.448372E-2,5.975116E-1,5.563223E-2],"split_indices":[2,2,3,0,0,0,0],"split_type":[0,0,0,0,0,0,0],"sum_hessian":[1.2E2,8.7E1,3.3E1,3.9E1,4.8E1,5E0,2.8E1],"tree_param":{"num_deleted":"0","num_feature":"4","num_nodes":"7","size_leaf_vector":"1"}},{"base_weights":[4.5015905E-3,-1.0127197E-2,2.857303E-2,4.385939E-3,-1.3403709E-1,4.9136832E-2,1.7524674E-3],"categories":[],"categories_nodes":[],"categories_segments":[],"categories_sizes":[],"default_left":[0,0,0,0,0,0,0],"id":2,"left_children":[1,3,5,-1,-1,-1,-1],"loss_changes":[4.289782E-2,1.3726029E-1,2.5284387E-2,0E0,0E0,0E0,0E0],"parents":[2147483647,0,0,1,1,2,2],"right_children":[2,4,6,-1,-1,-1,-1],"split_conditions":[6.1E0,5.9E0,3.1E0,4.385939E-3,-1.3403709E-1,4.9136832E-2,1.7524674E-3],"split_indices":[0,0,1,0,0,0,0],"split_type":[0,0,0,0,0,0,0],"sum_hessian":[1.2E2,7.5E1,4.5E1,6.8E1,7E0,2.5E1,2E1],"tree_param":{"num_deleted":"0","num_feature":"4","num_nodes":"7","size_leaf_vector":"1"}},{"base_weights":[-6.50926E-4,1.0075298E-1,-4.08283E-3,-1.6842524E-2,2.2676975E-1,3.378209E-3,-1.6261365E-2],"categories":[],"categories_nodes":[],"categories_segments":[],"categories_sizes":[],"default_left":[0,0,0,0,0,0,0],"id":3,"left_children":[1,3,5,-1,-1,-1,-1],"loss_changes":[4.2520385E-2,6.30954E-2,1.0776948E-2,0E0,0E0,0E0,0E0],"parents":[2147483647,0,0,1,1,2,2],"right_children":[2,4,6,-1,-1,-1,-1],"split_conditions":[2.3E0,4.6E0,3.2E0,-1.6842524E-2,2.2676975E-1,3.378209E-3,-1.6261365E-2],"split_indices":[1,2,1,0,0,0,0],"split_type":[0,0,0,0,0,0,0],"sum_hessian":[1.2E2,3E0,1.17E2,2E0,1E0,7.3E1,4.4E1],"tree_param":{"num_deleted":"0","num_feature":"4","num_nodes":"7","size_leaf_vector":"1"}},{"base_weights":[1.6284877E-3,7.890644E-3,-1.4627341E-2,1.8651391E-3,1.7799155E-1,-8.519549E-2,3.5371014E-3],"categories":[],"categories_nodes":[],"categories_segments":[],"categories_sizes":[],"default_left":[0,0,0,0,0,0,0],"id":4,"left_children":[1,3,5,-1,-1,-1,-1],"loss_changes":[1.2432799E-2,8.986307E-2,4.3883603E-2,0E0,0E0,0E0,0E0],"parents":[2147483647,0,0,1,1,2,2],"right_children":[2,4,6,-1,-1,-1,-1],"split_conditions":[1.8E0,5.2E0,6E0,1.8651391E-3,1.7799155E-1,-8.519549E-2,3.5371014E-3],"split_indices":[3,2,0,0,0,0,0],"split_type":[0,0,0,0,0,0,0],"sum_hessian":[1.2E2,8.7E1,3.3E1,8.5E1,2E0,6E0,2.7E1],"tree_param":{"num_deleted":"0","num_feature":"4","num_nodes":"7","size_leaf_vector":"1"}},{"base_weights":[8.1155146E-4,6.940048E-3,-1.720473E-2,6.6819857E-4,6.400932E-2,-4.0608097E-2,4.4573406E-3],"categories":[],"categories_nodes":[],"categories_segments":[],"categories_sizes":[],"default_left":[0,0,0,0,0,0,0],"id":5,"left_children":[1,3,5,-1,-1,-1,-1],"loss_changes":[1.3479342E-2,3.252885E-2,1.5896931E-2,0E0,0E0,0E0,0E0],"parents":[2147483647,0,0,1,1,2,2],"right_children":[2,4,6,-1,-1,-1,-1],"split_conditions":[6.4E0,1.9E0,3.1E0,6.6819857E-4,6.400932E-2,-4.0608097E-2,4.4573406E-3],"split_indices":[0,3,1,0,0,0,0],"split_type":[0,0,0,0,0,0,0],"sum_hessian":[1.2E2,9E1,3E1,8.2E1,8E0,1.4E1,1.6E1],"tree_param":{"num_deleted":"0","num_feature":"4","num_nodes":"7","size_leaf_vector":"1"}},{"base_weights":[2.3577204E-4,5.0581783E-2,-1.4728705E-3,-7.303079E-3,1.12118185E-1,-2.1312933E-2,4.089651E-3],"categories":[],"categories_nodes":[],"categories_segments":[],"categories_sizes":[],"default_left":[0,0,0,0,0,0,0],"id":6,"left_children":[1,3,5,-1,-1,-1,-1],"loss_changes":[1.04833245E-2,1.5066912E-2,1.3109736E-2,0E0,0E0,0E0,0E0],"parents":[2147483647,0,0,1,1,2,2],"right_children":[2,4,6,-1,-1,-1,-1],"split_conditions":[2.3E0,4.6E0,2.8E0,-7.303079E-3,1.12118185E-1,-2.1312933E-2,4.089651E-3],"split_indices":[1,2,1,0,0,0,0],"split_type":[0,0,0,0,0,0,0],"sum_hessian":[1.2E2,3E0,1.17E2,2E0,1E0,2.5E1,9.2E1],"tree_param":{"num_deleted":"0","num_feature":"4","num_nodes":"7","size_leaf_vector":"1"}},{"base_weights":[7.239263E-4,1.0789476E-2,-1.1151971E-2,5.3087075E-4,3.4357727E-2,4.831722E-3,-5.1413186E-2],"categories":[],"categories_nodes":[],"categories_segments":[],"categories_sizes":[],"default_left":[0,0,0,0,0,0,0],"id":7,"left_children":[1,3,5,-1,-1,-1,-1],"loss_changes":[1.4584354E-2,1.5939068E-2,3.6285695E-2,0E0,0E0,0E0,0E0],"parents":[2147483647,0,0,1,1,2,2],"right_children":[2,4,6,-1,-1,-1,-1],"split_conditions":[3.1E0,1.7E0,1.7E0,5.3087075E-4,3.4357727E-2,4.831722E-3,-5.1413186E-2],"split_indices":[1,3,3,0,0,0,0],"split_type":[0,0,0,0,0,0,0],"sum_hessian":[1.2E2,6.5E1,5.5E1,4.6E1,1.9E1,4E1,1.5E1],"tree_param":{"num_deleted":"0","num_feature":"4","num_nodes":"7","size_leaf_vector":"1"}},{"base_weights":[-9.663361E-5,1.7671946E-2,-3.7901339E-3,2.880634E-2,-2.3719382E-2,-5.6159325E-2,1.3186063E-3],"categories":[],"categories_nodes":[],"categories_segments":[],"categories_sizes":[],"default_left":[0,0,0,0,0,0,0],"id":8,"left_children":[1,3,5,-1,-1,-1,-1],"loss_changes":[8.007998E-3,1.0361483E-2,2.7095653E-2,0E0,0E0,0E0,0E0],"parents":[2147483647,0,0,1,1,2,2],"right_children":[2,4,6,-1,-1,-1,-1],"split_conditions":[2.7E0,6.2E0,2.8E0,2.880634E-2,-2.3719382E-2,-5.6159325E-2,1.3186063E-3],"split_indices":[1,0,1,0,0,0,0],"split_type":[0,0,0,0,0,0,0],"sum_hessian":[1.2E2,2E1,1E2,1.6E1,4E0,8E0,9.2E1],"tree_param":{"num_deleted":"0","num_feature":"4","num_nodes":"7","size_leaf_vector":"1"}},{"base_weights":[-4.1118986E-4,-4.302999E-3,1.3974383E-2,9.535952E-4,-3.5159737E-2,-8.282588E-3,3.36434E-2],"categories":[],"categories_nodes":[],"categories_segments":[],"categories_sizes":[],"default_left":[0,0,0,0,0,0,0],"id":9,"left_children":[1,3,5,-1,-1,-1,-1],"loss_changes":[6.8344255E-3,1.5604859E-2,1.16607435E-2,0E0,0E0,0E0,0E0],"parents":[2147483647,0,0,1,1,2,2],"right_children":[2,4,6,-1,-1,-1,-1],"split_conditions":[1.9E0,1.6E0,3.1E0,9.535952E-4,-3.5159737E-2,-8.282588E-3,3.36434E-2],"split_indices":[3,3,1,0,0,0,0],"split_type":[0,0,0,0,0,0,0],"sum_hessian":[1.2E2,9.5E1,2.5E1,8.2E1,1.3E1,1.2E1,1.3E1],"tree_param":{"num_deleted":"0","num_feature":"4","num_nodes":"7","size_leaf_vector":"1"}},{"base_weights":[-7.308736E-5,-6.700575E-3,9.154848E-3,6.782388E-3,-1.1407664E-2,5.6452315E-2,-9.5752504E-4],"categories":[],"categories_nodes":[],"categories_segments":[],"categories_sizes":[],"default_left":[0,0,0,0,0,0,0],"id":10,"left_children":[1,3,5,-1,-1,-1,-1],"loss_changes":[7.461464E-3,4.583422E-3,2.4446826E-2,0E0,0E0,0E0,0E0],"parents":[2147483647,0,0,1,1,2,2],"right_children":[2,4,6,-1,-1,-1,-1],"split_conditions":[1.5E0,2.8E0,4.6E0,6.782388E-3,-1.1407664E-2,5.6452315E-2,-9.5752504E-4],"split_indices":[3,1,2,0,0,0,0],"split_type":[0,0,0,0,0,0,0],"sum_hessian":[1.2E2,7E1,5E1,1.8E1,5.2E1,8E0,4.2E1],"tree_param":{"num_deleted":"0","num_feature":"4","num_nodes":"7","size_leaf_vector":"1"}},{"base_weights":[4.2038964E-4,-3.7867478E-3,1.0459096E-2,2.3888994E-3,-5.0960556E-2,1.4389727E-2,-1.1592348E-2],"categories":[],"categories_nodes":[],"categories_segments":[],"categories_sizes":[],"default_left":[0,0,0,0,0,0,0],"id":11,"left_children":[1,3,5,-1,-1,-1,-1],"loss_changes":[5.149946E-3,2.5176015E-2,3.2871505E-3,0E0,0E0,0E0,0E0],"parents":[2147483647,0,0,1,1,2,2],"right_children":[2,4,6,-1,-1,-1,-1],"split_conditions":[3.3E0,3.2E0,2.3E0,2.3888994E-3,-5.0960556E-2,1.4389727E-2,-1.1592348E-2],"split_indices":[1,1,3,0,0,0,0],"split_type":[0,0,0,0,0,0,0],"sum_hessian":[1.2E2,8.5E1,3.5E1,7.6E1,9E0,3E1,5E0],"tree_param":{"num_deleted":"0","num_feature":"4","num_nodes":"7","size_leaf_vector":"1"}},{"base_weights":[-3.7832386E-4,-5.8136405E-3,7.1959076E-3,1.9320304E-4,-1.4203316E-1,-3.521277E-2,1.5904795E-2],"categories":[],"categories_nodes":[],"categories_segments":[],"categories_sizes":[],"default_left":[0,0,0,0,0,0,0],"id":12,"left_children":[1,3,5,-1,-1,-1,-1],"loss_changes":[5.0232043E-3,5.8123145E-2,1.9396003E-2,0E0,0E0,0E0,0E0],"parents":[2147483647,0,0,1,1,2,2],"right_children":[2,4,6,-1,-1,-1,-1],"split_conditions":[6E0,5.9E0,2.8E0,1.9320304E-4,-1.4203316E-1,-3.521277E-2,1.5904795E-2],"split_indices":[0,0,1,0,0,0,0],"split_type":[0,0,0,0,0,0,0],"sum_hessian":[1.2E2,7E1,5E1,6.8E1,2E0,8E0,4.2E1],"tree_param":{"num_deleted":"0","num_feature":"4","num_nodes":"7","size_leaf_vector":"1"}},{"base_weights":[-1.3318169E-3,1.9541255E-3,-2.1549001E-2,-3.2751572E-3,2.1831654E-2,-4.4467688E-2,-8.293907E-3],"categories":[],"categories_nodes":[],"categories_segments":[],"categories_sizes":[],"default_left":[0,0,0,0,0,0,0],"id":13,"left_children":[1,3,5,-1,-1,-1,-1],"loss_changes":[8.0804415E-3,1.0985749E-2,4.795608E-3,0E0,0E0,0E0,0E0],"parents":[2147483647,0,0,1,1,2,2],"right_children":[2,4,6,-1,-1,-1,-1],"split_conditions":[2.1E0,4.9E0,3.1E0,-3.2751572E-3,2.1831654E-2,-4.4467688E-2,-8.293907E-3],"split_indices":[3,2,1,0,0,0,0],"split_type":[0,0,0,0,0,0,0],"sum_hessian":[1.2E2,1.04E2,1.6E1,8.3E1,2.1E1,5E0,1.1E1],"tree_param":{"num_deleted":"0","num_feature":"4","num_nodes":"7","size_leaf_vector":"1"}},{"base_weights":[-2.8269304E-4,1.3399088E-3,-3.160588E-2,8.74635E-5,4.848619E-2,-4.291147E-2,-5.9964657E-3],"categories":[],"categories_nodes":[],"categories_segments":[],"categories_sizes":[],"default_left":[0,0,0,0,0,0,0],"id":14,"left_children":[1,3,5,-1,-1,-1,-1],"loss_changes":[6.1921813E-3,6.8453434E-3,1.4798599E-3,0E0,0E0,0E0,0E0],"parents":[2147483647,0,0,1,1,2,2],"right_children":[2,4,6,-1,-1,-1,-1],"split_conditions":[7.3E0,7.2E0,6.6E0,8.74635E-5,4.848619E-2,-4.291147E-2,-5.9964657E-3],"split_indices":[0,0,2,0,0,0,0],"split_type":[0,0,0,0,0,0,0],"sum_hessian":[1.2E2,1.15E2,5E0,1.13E2,2E0,3E0,2E0],"tree_param":{"num_deleted":"0","num_feature":"4","num_nodes":"7","size_leaf_vector":"1"}},{"base_weights":[-2.778443E-6,1.2838685E-2,-1.2753309E-3,-9.4124535E-3,2.235942E-2,3.0905155E-3,-6.8625347E-3],"categories":[],"categories_nodes":[],"categories_segments":[],"categories_sizes":[],"default_left":[0,0,0,0,0,0,0],"id":15,"left_children":[1,3,5,-1,-1,-1,-1],"loss_changes":[1.9936874E-3,2.540776E-3,2.7288178E-3,0E0,0E0,0E0,0E0],"parents":[2147483647,0,0,1,1,2,2],"right_children":[2,4,6,-1,-1,-1,-1],"split_conditions":[1.4E0,3.1E0,3.1E0,-9.4124535E-3,2.235942E-2,3.0905155E-3,-6.8625347E-3],"split_indices":[2,1,1,0,0,0,0],"split_type":[0,0,0,0,0,0,0],"sum_hessian":[1.2E2,1E1,1.1E2,3E0,7E0,6.2E1,4.8E1],"tree_param":{"num_deleted":"0","num_feature":"4","num_nodes":"7","size_leaf_vector":"1"}},{"base_weights":[7.582816E-5,5.5040657E-3,-2.475703E-3,2.4476002E-3,4.1365784E-2,-2.0521231E-2,5.662697E-4],"categories":[],"categories_nodes":[],"categories_segments":[],"categories_sizes":[],"default_left":[0,0,0,0,0,0,0],"id":16,"left_children":[1,3,5,-1,-1,-1,-1],"loss_changes":[1.6895147E-3,4.173547E-3,4.5678224E-3,0E0,0E0,0E0,0E0],"parents":[2147483647,0,0,1,1,2,2],"right_children":[2,4,6,-1,-1,-1,-1],"split_conditions":[5.4E0,3.6E0,5.6E0,2.4476002E-3,4.1365784E-2,-2.0521231E-2,5.662697E-4],"split_indices":[0,2,0,0,0,0,0],"split_type":[0,0,0,0,0,0,0],"sum_hessian":[1.2E2,3.8E1,8.2E1,3.6E1,2E0,1.1E1,7.1E1],"tree_param":{"num_deleted":"0","num_feature":"4","num_nodes":"7","size_leaf_vector":"1"}},{"base_weights":[1.9719424E-4,4.1867592E-3,-3.7956033E-3,8.323181E-4,1.0272661E-1,-2.5258979E-2,1.4315188E-3],"categories":[],"categories_nodes":[],"categories_segments":[],"categories_sizes":[],"default_left":[0,0,0,0,0,0,0],"id":17,"left_children":[1,3,5,-1,-1,-1,-1],"loss_changes":[1.9433637E-3,2.0077812E-2,6.879851E-3,0E0,0E0,0E0,0E0],"parents":[2147483647,0,0,1,1,2,2],"right_children":[2,4,6,-1,-1,-1,-1],"split_conditions":[4.3E0,1.5E0,6E0,8.323181E-4,1.0272661E-1,-2.5258979E-2,1.4315188E-3],"split_indices":[2,3,0,0,0,0,0],"split_type":[0,0,0,0,0,0,0],"sum_hessian":[1.2E2,6E1,6E1,5.9E1,1E0,1.1E1,4.9E1],"tree_param":{"num_deleted":"0","num_feature":"4","num_nodes":"7","size_leaf_vector":"1"}},{"base_weights":[6.5895915E-4,5.179956E-3,-5.2393E-3,4.338873E-4,4.715458E-2,-7.0161976E-2,-1.3175876E-3],"categories":[],"categories_nodes":[],"categories_segments":[],"categories_sizes":[],"default_left":[0,0,0,0,0,0,0],"id":18,"left_children":[1,3,5,-1,-1,-1,-1],"loss_changes":[3.2537268E-3,1.3725338E-2,1.3401784E-2,0E0,0E0,0E0,0E0],"parents":[2147483647,0,0,1,1,2,2],"right_children":[2,4,6,-1,-1,-1,-1],"split_conditions":[5.9E0,1.6E0,6E0,4.338873E-4,4.715458E-2,-7.0161976E-2,-1.3175876E-3],"split_indices":[0,3,0,0,0,0,0],"split_type":[0,0,0,0,0,0,0],"sum_hessian":[1.2E2,6.8E1,5.2E1,6.2E1,6E0,2E0,5E1],"tree_param":{"num_deleted":"0","num_feature":"4","num_nodes":"7","size_leaf_vector":"1"}},{"base_weights":[-1.9745385E-4,-6.184662E-3,3.8240622E-3,3.4203099E-3,-2.8183954E-2,-5.5820367E-4,1.0123917E-2],"categories":[],"categories_nodes":[],"categories_segments":[],"categories_sizes":[],"default_left":[0,0,0,0,0,0,0],"id":19,"left_children":[1,3,5,-1,-1,-1,-1],"loss_changes":[2.9370466E-3,1.0450224E-2,2.0210086E-3,0E0,0E0,0E0,0E0],"parents":[2147483647,0,0,1,1,2,2],"right_children":[2,4,6,-1,-1,-1,-1],"split_conditions":[3E0,1.6E0,6E0,3.4203099E-3,-2.8183954E-2,-5.5820367E-4,1.0123917E-2],"split_indices":[1,3,0,0,0,0,0],"split_type":[0,0,0,0,0,0,0],"sum_hessian":[1.2E2,4.8E1,7.2E1,3.4E1,1.4E1,4.3E1,2.9E1],"tree_param":{"num_deleted":"0","num_feature":"4","num_nodes":"7","size_leaf_vector":"1"}},{"base_weights":[-1.2562073E-4,1.9129958E-3,-7.647989E-3,-1.9673407E-3,1.05153145E-2,-1.8704487E-2,1.5314784E-2],"categories":[],"categories_nodes":[],"categories_segments":[],"categories_sizes":[],"default_left":[0,0,0,0,0,0,0],"id":20,"left_children":[1,3,5,-1,-1,-1,-1],"loss_changes":[1.8701928E-3,3.225157E-3,6.8875398E-3,0E0,0E0,0E0,0E0],"parents":[2147483647,0,0,1,1,2,2],"right_children":[2,4,6,-1,-1,-1,-1],"split_conditions":[6.5E0,1.5E0,3.2E0,-1.9673407E-3,1.05153145E-2,-1.8704487E-2,1.5314784E-2],"split_indices":[0,3,1,0,0,0,0],"split_type":[0,0,0,0,0,0,0],"sum_hessian":[1.2E2,9.5E1,2.5E1,6.6E1,2.9E1,1.7E1,8E0],"tree_param":{"num_deleted":"0","num_feature":"4","num_nodes":"7","size_leaf_vector":"1"}},{"base_weights":[4.262816E-5,1.977802E-3,-8.7555535E-3,-7.5914356E-4,2.973571E-2,4.6307027E-2,-1.35826785E-2],"categories":[],"categories_nodes":[],"categories_segments":[],"categories_sizes":[],"default_left":[0,0,0,0,0,0,0],"id":21,"left_children":[1,3,5,-1,-1,-1,-1],"loss_changes":[2.077464E-3,7.6197614E-3,6.47644E-3,0E0,0E0,0E0,0E0],"parents":[2147483647,0,0,1,1,2,2],"right_children":[2,4,6,-1,-1,-1,-1],"split_conditions":[2E0,5.2E0,5.7E0,-7.5914356E-4,2.973571E-2,4.6307027E-2,-1.35826785E-2],"split_indices":[3,2,0,0,0,0,0],"split_type":[0,0,0,0,0,0,0],"sum_hessian":[1.2E2,9.9E1,2.1E1,9.1E1,8E0,1E0,2E1],"tree_param":{"num_deleted":"0","num_feature":"4","num_nodes":"7","size_leaf_vector":"1"}},{"base_weights":[5.0992187E-4,-7.453705E-3,2.9877203E-3,-1.3702164E-2,3.5024703E-2,2.0913044E-2,3.2806664E-4],"categories":[],"categories_nodes":[],"categories_segments":[],"categories_sizes":[],"default_left":[0,0,0,0,0,0,0],"id":22,"left_children":[1,3,5,-1,-1,-1,-1],"loss_changes":[2.4098735E-3,8.177227E-3,4.426929E-3,0E0,0E0,0E0,0E0],"parents":[2147483647,0,0,1,1,2,2],"right_children":[2,4,6,-1,-1,-1,-1],"split_conditions":[2.8E0,5.2E0,2.9E0,-1.3702164E-2,3.5024703E-2,2.0913044E-2,3.2806664E-4],"split_indices":[1,2,1,0,0,0,0],"split_type":[0,0,0,0,0,0,0],"sum_hessian":[1.2E2,2.8E1,9.2E1,2.5E1,3E0,1.1E1,8.1E1],"tree_param":{"num_deleted":"0","num_feature":"4","num_nodes":"7","size_leaf_vector":"1"}},{"base_weights":[3.5176583E-4,6.5686335E-3,-6.7438157E-3,4.1187294E-3,8.168125E-2,-1.7018516E-2,2.0080975E-4],"categories":[],"categories_nodes":[],"categories_segments":[],"categories_sizes":[],"default_left":[0,0,0,0,0,0,0],"id":23,"left_children":[1,3,5,-1,-1,-1,-1],"loss_changes":[5.3818855E-3,1.16247935E-2,4.070592E-3,0E0,0E0,0E0,0E0],"parents":[2147483647,0,0,1,1,2,2],"right_children":[2,4,6,-1,-1,-1,-1],"split_conditions":[4.5E0,1.5E0,1.7E0,4.1187294E-3,8.168125E-2,-1.7018516E-2,2.0080975E-4],"split_indices":[2,3,3,0,0,0,0],"split_type":[0,0,0,0,0,0,0],"sum_hessian":[1.2E2,6.4E1,5.6E1,6.3E1,1E0,2.2E1,3.4E1],"tree_param":{"num_deleted":"0","num_feature":"4","num_nodes":"7","size_leaf_vector":"1"}},{"base_weights":[5.701097E-4,3.3738068E-3,-5.4113516E-3,-6.926043E-4,8.385858E-2,2.4360755E-2,-1.3880307E-2],"categories":[],"categories_nodes":[],"categories_segments":[],"categories_sizes":[],"default_left":[0,0,0,0,0,0,0],"id":24,"left_children":[1,3,5,-1,-1,-1,-1],"loss_changes":[2.0474517E-3,2.7222667E-2,1.0171542E-2,0E0,0E0,0E0,0E0],"parents":[2147483647,0,0,1,1,2,2],"right_children":[2,4,6,-1,-1,-1,-1],"split_conditions":[1.6E0,5E0,5E0,-6.926043E-4,8.385858E-2,2.4360755E-2,-1.3880307E-2],"split_indices":[3,2,2,0,0,0,0],"split_type":[0,0,0,0,0,0,0],"sum_hessian":[1.2E2,8.2E1,3.8E1,7.9E1,3E0,8E0,3E1],"tree_param":{"num_deleted":"0","num_feature":"4","num_nodes":"7","size_leaf_vector":"1"}},{"base_weights":[7.7392504E-4,-2.5203617E-3,1.6581021E-2,3.832089E-3,-1.5726384E-2,-1.6230047E-3,2.2371218E-2],"categories":[],"categories_nodes":[],"categories_segments":[],"categories_sizes":[],"default_left":[0,0,0,0,0,0,0],"id":25,"left_children":[1,3,5,-1,-1,-1,-1],"loss_changes":[6.3426364E-3,8.533216E-3,2.2498108E-3,0E0,0E0,0E0,0E0],"parents":[2147483647,0,0,1,1,2,2],"right_children":[2,4,6,-1,-1,-1,-1],"split_conditions":[6.7E0,5.9E0,5E0,3.832089E-3,-1.5726384E-2,-1.6230047E-3,2.2371218E-2],"split_indices":[0,0,2,0,0,0,0],"split_type":[0,0,0,0,0,0,0],"sum_hessian":[1.2E2,1E2,2E1,6.8E1,3.2E1,5E0,1.5E1],"tree_param":{"num_deleted":"0","num_feature":"4","num_nodes":"7","size_leaf_vector":"1"}},{"base_weights":[7.3162264E-5,-3.549446E-3,7.228238E-3,-4.8874825E-4,-4.172671E-2,1.2357435E-2,-1.5474379E-2],"categories":[],"categories_nodes":[],"categories_segments":[],"categories_sizes":[],"default_left":[0,0,0,0,0,0,0],"id":26,"left_children":[1,3,5,-1,-1,-1,-1],"loss_changes":[3.1619803E-3,9.444379E-3,4.9655177E-3,0E0,0E0,0E0,0E0],"parents":[2147483647,0,0,1,1,2,2],"right_children":[2,4,6,-1,-1,-1,-1],"split_conditions":[6.2E0,5.1E0,6E0,-4.8874825E-4,-4.172671E-2,1.2357435E-2,-1.5474379E-2],"split_indices":[0,2,2,0,0,0,0],"split_type":[0,0,0,0,0,0,0],"sum_hessian":[1.2E2,8E1,4E1,7.5E1,5E0,3.3E1,7E0],"tree_param":{"num_deleted":"0","num_feature":"4","num_nodes":"7","size_leaf_vector":"1"}},{"base_weights":[-3.7465311E-4,-2.7216214E-3,8.305485E-3,-2.8853116E-4,-2.6209434E-2,3.705731E-2,-4.237677E-3],"categories":[],"categories_nodes":[],"categories_segments":[],"categories_sizes":[],"default_left":[0,0,0,0,0,0,0],"id":27,"left_children":[1,3,5,-1,-1,-1,-1],"loss_changes":[2.4876175E-3,5.478643E-3,9.533646E-3,0E0,0E0,0E0,0E0],"parents":[2147483647,0,0,1,1,2,2],"right_children":[2,4,6,-1,-1,-1,-1],"split_conditions":[1.9E0,5.1E0,5.2E0,-2.8853116E-4,-2.6209434E-2,3.705731E-2,-4.237677E-3],"split_indices":[3,2,2,0,0,0,0],"split_type":[0,0,0,0,0,0,0],"sum_hessian":[1.2E2,9.5E1,2.5E1,8.7E1,8E0,7E0,1.8E1],"tree_param":{"num_deleted":"0","num_feature":"4","num_nodes":"7","size_leaf_vector":"1"}},{"base_weights":[5.2230556E-5,-1.5869073E-3,1.3791754E-2,9.566533E-4,-9.3472265E-3,3.194484E-2,5.1513435E-3],"categories":[],"categories_nodes":[],"categories_segments":[],"categories_sizes":[],"default_left":[0,0,0,0,0,0,0],"id":28,"left_children":[1,3,5,-1,-1,-1,-1],"loss_changes":[2.7469238E-3,2.1604758E-3,1.874493E-3,0E0,0E0,0E0,0E0],"parents":[2147483647,0,0,1,1,2,2],"right_children":[2,4,6,-1,-1,-1,-1],"split_conditions":[5.8E0,1.6E0,1.9E0,9.566533E-4,-9.3472265E-3,3.194484E-2,5.1513435E-3],"split_indices":[2,3,3,0,0,0,0],"split_type":[0,0,0,0,0,0,0],"sum_hessian":[1.2E2,1.08E2,1.2E1,8.2E1,2.6E1,3E0,9E0],"tree_param":{"num_deleted":"0","num_feature":"4","num_nodes":"7","size_leaf_vector":"1"}},{"base_weights":[2.3722896E-4,-4.212613E-3,4.8314454E-3,-1.0528596E-2,3.3375951E-3,3.1452984E-2,7.219405E-4],"categories":[],"categories_nodes":[],"categories_segments":[],"categories_sizes":[],"default_left":[0,0,0,0,0,0,0],"id":29,"left_children":[1,3,5,-1,-1,-1,-1],"loss_changes":[2.4940209E-3,2.9917334E-3,6.5413737E-3,0E0,0E0,0E0,0E0],"parents":[2147483647,0,0,1,1,2,2],"right_children":[2,4,6,-1,-1,-1,-1],"split_conditions":[5.8E0,3.2E0,5.9E0,-1.0528596E-2,3.3375951E-3,3.1452984E-2,7.219405E-4],"split_indices":[0,1,0,0,0,0,0],"split_type":[0,0,0,0,0,0,0],"sum_hessian":[1.2E2,6.1E1,5.9E1,3.3E1,2.8E1,7E0,5.2E1],"tree_param":{"num_deleted":"0","num_feature":"4","num_nodes":"7","size_leaf_vector":"1"}},{"base_weights":[2.0647894E-4,1.955083E-3,-7.3290993E-3,5.1448857E-3,-1.8319695E-3,-3.297497E-2,-3.3163985E-3],"categories":[],"categories_nodes":[],"categories_segments":[],"categories_sizes":[],"default_left":[0,0,0,0,0,0,0],"id":30,"left_children":[1,3,5,-1,-1,-1,-1],"loss_changes":[1.6087149E-3,1.2053405E-3,2.2575534E-3,0E0,0E0,0E0,0E0],"parents":[2147483647,0,0,1,1,2,2],"right_children":[2,4,6,-1,-1,-1,-1],"split_conditions":[3.5E0,4.6E0,1.3E0,5.1448857E-3,-1.8319695E-3,-3.297497E-2,-3.3163985E-3],"split_indices":[1,2,2,0,0,0,0],"split_type":[0,0,0,0,0,0,0],"sum_hessian":[1.2E2,9.8E1,2.2E1,5.3E1,4.5E1,2E0,2E1],"tree_param":{"num_deleted":"0","num_feature":"4","num_nodes":"7","size_leaf_vector":"1"}},{"base_weights":[-2.7252958E-4,-4.482408E-3,3.4234028E-3,-3.086272E-3,-4.133302E-2,2.7943838E-2,1.3574098E-3],"categories":[],"categories_nodes":[],"categories_segments":[],"categories_sizes":[],"default_left":[0,0,0,0,0,0,0],"id":31,"left_children":[1,3,5,-1,-1,-1,-1],"loss_changes":[1.8980358E-3,2.804998E-3,3.2549065E-3,0E0,0E0,0E0,0E0],"parents":[2147483647,0,0,1,1,2,2],"right_children":[2,4,6,-1,-1,-1,-1],"split_conditions":[4.2E0,5.9E0,4.3E0,-3.086272E-3,-4.133302E-2,2.7943838E-2,1.3574098E-3],"split_indices":[2,0,2,0,0,0,0],"split_type":[0,0,0,0,0,0,0],"sum_hessian":[1.2E2,5.6E1,6.4E1,5.5E1,1E0,4E0,6E1],"tree_param":{"num_deleted":"0","num_feature":"4","num_nodes":"7","size_leaf_vector":"1"}},{"base_weights":[-1.2493861E-4,-2.6156178E-3,3.3449274E-3,2.4865702E-5,-6.2474865E-2,-1.7609265E-2,7.6528997E-3],"categories":[],"categories_nodes":[],"categories_segments":[],"categories_sizes":[],"default_left":[0,0,0,0,0,0,0],"id":32,"left_children":[1,3,5,-1,-1,-1,-1],"loss_changes":[1.0544702E-3,1.1223627E-2,4.7385357E-3,0E0,0E0,0E0,0E0],"parents":[2147483647,0,0,1,1,2,2],"right_children":[2,4,6,-1,-1,-1,-1],"split_conditions":[6E0,5.9E0,2.8E0,2.4865702E-5,-6.2474865E-2,-1.7609265E-2,7.6528997E-3],"split_indices":[0,0,1,0,0,0,0],"split_type":[0,0,0,0,0,0,0],"sum_hessian":[1.2E2,7E1,5E1,6.8E1,2E0,8E0,4.2E1],"tree_param":{"num_deleted":"0","num_feature":"4","num_nodes":"7","size_leaf_vector":"1"}},{"base_weights":[-5.984108E-4,1.8233274E-3,-9.5171975E-3,-1.5000227E-3,9.184699E-3,-1.519932E-2,2.9045145E-3],"categories":[],"categories_nodes":[],"categories_segments":[],"categories_sizes":[],"default_left":[0,0,0,0,0,0,0],"id":33,"left_children":[1,3,5,-1,-1,-1,-1],"loss_changes":[2.630828E-3,2.362361E-3,1.8792707E-3,0E0,0E0,0E0,0E0],"parents":[2147483647,0,0,1,1,2,2],"right_children":[2,4,6,-1,-1,-1,-1],"split_conditions":[6.5E0,1.5E0,3.2E0,-1.5000227E-3,9.184699E-3,-1.519932E-2,2.9045145E-3],"split_indices":[0,3,1,0,0,0,0],"split_type":[0,0,0,0,0,0,0],"sum_hessian":[1.2E2,9.5E1,2.5E1,6.6E1,2.9E1,1.7E1,8E0],"tree_param":{"num_deleted":"0","num_feature":"4","num_nodes":"7","size_leaf_vector":"1"}},{"base_weights":[-3.8098537E-5,2.18004E-3,-4.757776E-3,-4.967978E-4,5.5171788E-2,-3.3294786E-2,-5.4512365E-4],"categories":[],"categories_nodes":[],"categories_segments":[],"categories_sizes":[],"default_left":[0,0,0,0,0,0,0],"id":34,"left_children":[1,3,5,-1,-1,-1,-1],"loss_changes":[1.2771088E-3,1.1800986E-2,4.670293E-3,0E0,0E0,0E0,0E0],"parents":[2147483647,0,0,1,1,2,2],"right_children":[2,4,6,-1,-1,-1,-1],"split_conditions":[1.6E0,5E0,1.7E0,-4.967978E-4,5.5171788E-2,-3.3294786E-2,-5.4512365E-4],"split_indices":[3,2,3,0,0,0,0],"split_type":[0,0,0,0,0,0,0],"sum_hessian":[1.2E2,8.2E1,3.8E1,7.9E1,3E0,4E0,3.4E1],"tree_param":{"num_deleted":"0","num_feature":"4","num_nodes":"7","size_leaf_vector":"1"}},{"base_weights":[1.7217502E-4,-4.208842E-3,3.1104991E-3,6.154131E-4,-1.5184848E-2,1.3522341E-2,-2.9170912E-4],"categories":[],"categories_nodes":[],"categories_segments":[],"categories_sizes":[],"default_left":[0,0,0,0,0,0,0],"id":35,"left_children":[1,3,5,-1,-1,-1,-1],"loss_changes":[1.570706E-3,2.6039465E-3,2.5898423E-3,0E0,0E0,0E0,0E0],"parents":[2147483647,0,0,1,1,2,2],"right_children":[2,4,6,-1,-1,-1,-1],"split_conditions":[3E0,1.6E0,3.1E0,6.154131E-4,-1.5184848E-2,1.3522341E-2,-2.9170912E-4],"split_indices":[1,3,1,0,0,0,0],"split_type":[0,0,0,0,0,0,0],"sum_hessian":[1.2E2,4.8E1,7.2E1,3.4E1,1.4E1,1.7E1,5.5E1],"tree_param":{"num_deleted":"0","num_feature":"4","num_nodes":"7","size_leaf_vector":"1"}},{"base_weights":[-1.1051422E-5,-8.3626783E-4,6.908921E-3,2.6433384E-3,-3.722002E-3,3.258416E-2,-4.0520667E-3],"categories":[],"categories_nodes":[],"categories_segments":[],"categories_sizes":[],"default_left":[0,0,0,0,0,0,0],"id":36,"left_children":[1,3,5,-1,-1,-1,-1],"loss_changes":[6.9674524E-4,1.1043313E-3,3.7905714E-3,0E0,0E0,0E0,0E0],"parents":[2147483647,0,0,1,1,2,2],"right_children":[2,4,6,-1,-1,-1,-1],"split_conditions":[5.8E0,5.6E0,1.9E0,2.6433384E-3,-3.722002E-3,3.258416E-2,-4.0520667E-3],"split_indices":[2,0,3,0,0,0,0],"split_type":[0,0,0,0,0,0,0],"sum_hessian":[1.2E2,1.08E2,1.2E1,4.9E1,5.9E1,3E0,9E0],"tree_param":{"num_deleted":"0","num_feature":"4","num_nodes":"7","size_leaf_vector":"1"}},{"base_weights":[2.2687111E-4,-2.2978992E-3,3.7372988E-3,-7.2034476E-3,4.2642104E-3,5.404842E-2,1.6501081E-3],"categories":[],"categories_nodes":[],"categories_segments":[],"categories_sizes":[],"default_left":[0,0,0,0,0,0,0],"id":37,"left_children":[1,3,5,-1,-1,-1,-1],"loss_changes":[1.0810137E-3,2.31626E-3,5.2662687E-3,0E0,0E0,0E0,0E0],"parents":[2147483647,0,0,1,1,2,2],"right_children":[2,4,6,-1,-1,-1,-1],"split_conditions":[1.5E0,3.2E0,4.3E0,-7.2034476E-3,4.2642104E-3,5.404842E-2,1.6501081E-3],"split_indices":[3,1,2,0,0,0,0],"split_type":[0,0,0,0,0,0,0],"sum_hessian":[1.2E2,7E1,5E1,4E1,3E1,1E0,4.9E1],"tree_param":{"num_deleted":"0","num_feature":"4","num_nodes":"7","size_leaf_vector":"1"}},{"base_weights":[4.3603432E-4,6.7628124E-3,-2.6555164E-3,8.705987E-4,2.043876E-2,-7.782287E-3,4.1115317E-3],"categories":[],"categories_nodes":[],"categories_segments":[],"categories_sizes":[],"default_left":[0,0,0,0,0,0,0],"id":38,"left_children":[1,3,5,-1,-1,-1,-1],"loss_changes":[2.3846647E-3,3.2054698E-3,2.8768315E-3,0E0,0E0,0E0,0E0],"parents":[2147483647,0,0,1,1,2,2],"right_children":[2,4,6,-1,-1,-1,-1],"split_conditions":[2.9E0,6.2E0,6E0,8.705987E-4,2.043876E-2,-7.782287E-3,4.1115317E-3],"split_indices":[1,0,0,0,0,0,0],"split_type":[0,0,0,0,0,0,0],"sum_hessian":[1.2E2,3.9E1,8.1E1,2.8E1,1.1E1,4.6E1,3.5E1],"tree_param":{"num_deleted":"0","num_feature":"4","num_nodes":"7","size_leaf_vector":"1"}},{"base_weights":[1.4577598E-4,5.233908E-3,-7.4374774E-3,3.6243044E-3,4.158322E-2,1.3420284E-2,-1.0112684E-2],"categories":[],"categories_nodes":[],"categories_segments":[],"categories_sizes":[],"default_left":[0,0,0,0,0,0,0],"id":39,"left_children":[1,3,5,-1,-1,-1,-1],"loss_changes":[4.707663E-3,4.1203722E-3,2.8698572E-3,0E0,0E0,0E0,0E0],"parents":[2147483647,0,0,1,1,2,2],"right_children":[2,4,6,-1,-1,-1,-1],"split_conditions":[4.6E0,1.6E0,5.9E0,3.6243044E-3,4.158322E-2,1.3420284E-2,-1.0112684E-2],"split_indices":[2,3,0,0,0,0,0],"split_type":[0,0,0,0,0,0,0],"sum_hessian":[1.2E2,7.2E1,4.8E1,7E1,2E0,5E0,4.3E1],"tree_param":{"num_deleted":"0","num_feature":"4","num_nodes":"7","size_leaf_vector":"1"}},{"base_weights":[4.0094552E-4,9.17303E-3,-4.7197225E-4,-1.0577331E-3,1.5170285E-2,-1.9376334E-3,4.921784E-3],"categories":[],"categories_nodes":[],"categories_segments":[],"categories_sizes":[],"default_left":[0,0,0,0,0,0,0],"id":40,"left_children":[1,3,5,-1,-1,-1,-1],"loss_changes":[9.308637E-4,6.909675E-4,8.870381E-4,0E0,0E0,0E0,0E0],"parents":[2147483647,0,0,1,1,2,2],"right_children":[2,4,6,-1,-1,-1,-1],"split_conditions":[4.8E0,3.1E0,5.3E0,-1.0577331E-3,1.5170285E-2,-1.9376334E-3,4.921784E-3],"split_indices":[0,1,2,0,0,0,0],"split_type":[0,0,0,0,0,0,0],"sum_hessian":[1.2E2,1E1,1.1E2,4E0,6E0,8.7E1,2.3E1],"tree_param":{"num_deleted":"0","num_feature":"4","num_nodes":"7","size_leaf_vector":"1"}},{"base_weights":[1.4129937E-4,1.8101597E-3,-3.5514785E-3,4.490204E-5,2.1221578E-2,-2.2291392E-2,1.3991921E-3],"categories":[],"categories_nodes":[],"categories_segments":[],"categories_sizes":[],"default_left":[0,0,0,0,0,0,0],"id":41,"left_children":[1,3,5,-1,-1,-1,-1],"loss_changes":[7.5211906E-4,2.8774037E-3,3.5566455E-3,0E0,0E0,0E0,0E0],"parents":[2147483647,0,0,1,1,2,2],"right_children":[2,4,6,-1,-1,-1,-1],"split_conditions":[4.9E0,1.6E0,6.1E0,4.490204E-5,2.1221578E-2,-2.2291392E-2,1.3991921E-3],"split_indices":[2,3,0,0,0,0,0],"split_type":[0,0,0,0,0,0,0],"sum_hessian":[1.2E2,8.3E1,3.7E1,7.7E1,6E0,7E0,3E1],"tree_param":{"num_deleted":"0","num_feature":"4","num_nodes":"7","size_leaf_vector":"1"}},{"base_weights":[3.0860908E-6,2.305341E-3,-2.9942472E-3,2.071703E-4,3.634882E-2,-4.5541923E-2,-4.3273205E-4],"categories":[],"categories_nodes":[],"categories_segments":[],"categories_sizes":[],"default_left":[0,0,0,0,0,0,0],"id":42,"left_children":[1,3,5,-1,-1,-1,-1],"loss_changes":[8.4187835E-4,4.921072E-3,5.756578E-3,0E0,0E0,0E0,0E0],"parents":[2147483647,0,0,1,1,2,2],"right_children":[2,4,6,-1,-1,-1,-1],"split_conditions":[5.9E0,5.1E0,6E0,2.071703E-4,3.634882E-2,-4.5541923E-2,-4.3273205E-4],"split_indices":[0,2,0,0,0,0,0],"split_type":[0,0,0,0,0,0,0],"sum_hessian":[1.2E2,6.8E1,5.2E1,6.5E1,3E0,2E0,5E1],"tree_param":{"num_deleted":"0","num_feature":"4","num_nodes":"7","size_leaf_vector":"1"}},{"base_weights":[-7.784465E-5,2.566312E-3,-3.0917453E-3,9.5576886E-4,5.2820534E-2,-2.1833891E-2,1.3604963E-3],"categories":[],"categories_nodes":[],"categories_segments":[],"categories_sizes":[],"default_left":[0,0,0,0,0,0,0],"id":43,"left_children":[1,3,5,-1,-1,-1,-1],"loss_changes":[9.722106E-4,5.210394E-3,4.786045E-3,0E0,0E0,0E0,0E0],"parents":[2147483647,0,0,1,1,2,2],"right_children":[2,4,6,-1,-1,-1,-1],"split_conditions":[4.5E0,1.5E0,6E0,9.5576886E-4,5.2820534E-2,-2.1833891E-2,1.3604963E-3],"split_indices":[2,3,0,0,0,0,0],"split_type":[0,0,0,0,0,0,0],"sum_hessian":[1.2E2,6.4E1,5.6E1,6.3E1,1E0,1E1,4.6E1],"tree_param":{"num_deleted":"0","num_feature":"4","num_nodes":"7","size_leaf_vector":"1"}},{"base_weights":[2.7522942E-4,2.7027887E-3,-3.7415042E-3,2.25738E-4,2.3729503E-2,-1.6751891E-2,-1.2406144E-4],"categories":[],"categories_nodes":[],"categories_segments":[],"categories_sizes":[],"default_left":[0,0,0,0,0,0,0],"id":44,"left_children":[1,3,5,-1,-1,-1,-1],"loss_changes":[1.1899665E-3,3.9530457E-3,2.162881E-3,0E0,0E0,0E0,0E0],"parents":[2147483647,0,0,1,1,2,2],"right_children":[2,4,6,-1,-1,-1,-1],"split_conditions":[6.1E0,1.8E0,4.7E0,2.25738E-4,2.3729503E-2,-1.6751891E-2,-1.2406144E-4],"split_indices":[0,3,2,0,0,0,0],"split_type":[0,0,0,0,0,0,0],"sum_hessian":[1.2E2,7.5E1,4.5E1,6.8E1,7E0,9E0,3.6E1],"tree_param":{"num_deleted":"0","num_feature":"4","num_nodes":"7","size_leaf_vector":"1"}},{"base_weights":[5.8495676E-5,2.437047E-3,-5.0050495E-3,1.375456E-3,2.3059607E-2,-1.6303817E-2,1.9744134E-3],"categories":[],"categories_nodes":[],"categories_segments":[],"categories_sizes":[],"default_left":[0,0,0,0,0,0,0],"id":45,"left_children":[1,3,5,-1,-1,-1,-1],"loss_changes":[1.4695098E-3,1.7853787E-3,3.1077042E-3,0E0,0E0,0E0,0E0],"parents":[2147483647,0,0,1,1,2,2],"right_children":[2,4,6,-1,-1,-1,-1],"split_conditions":[1.6E0,5E0,3E0,1.375456E-3,2.3059607E-2,-1.6303817E-2,1.9744134E-3],"split_indices":[3,2,1,0,0,0,0],"split_type":[0,0,0,0,0,0,0],"sum_hessian":[1.2E2,8.2E1,3.8E1,7.9E1,3E0,1.4E1,2.4E1],"tree_param":{"num_deleted":"0","num_feature":"4","num_nodes":"7","size_leaf_vector":"1"}},{"base_weights":[8.351951E-5,2.5037322E-3,-4.059589E-3,-2.0561875E-3,1.329903E-2,1.141483E-3,-1.845766E-2],"categories":[],"categories_nodes":[],"categories_segments":[],"categories_sizes":[],"default_left":[0,0,0,0,0,0,0],"id":46,"left_children":[1,3,5,-1,-1,-1,-1],"loss_changes":[1.2234559E-3,3.8177234E-3,3.3909127E-3,0E0,0E0,0E0,0E0],"parents":[2147483647,0,0,1,1,2,2],"right_children":[2,4,6,-1,-1,-1,-1],"split_conditions":[3.2E0,1.8E0,4.8E0,-2.0561875E-3,1.329903E-2,1.141483E-3,-1.845766E-2],"split_indices":[1,3,2,0,0,0,0],"split_type":[0,0,0,0,0,0,0],"sum_hessian":[1.2E2,7.6E1,4.4E1,5.4E1,2.2E1,3.3E1,1.1E1],"tree_param":{"num_deleted":"0","num_feature":"4","num_nodes":"7","size_leaf_vector":"1"}},{"base_weights":[-5.0176277E-5,1.7019205E-3,-3.921912E-3,-1.322907E-3,1.21196415E-2,-9.541795E-3,1.0739782E-2],"categories":[],"categories_nodes":[],"categories_segments":[],"categories_sizes":[],"default_left":[0,0,0,0,0,0,0],"id":47,"left_children":[1,3,5,-1,-1,-1,-1],"loss_changes":[8.2749705E-4,2.6630252E-3,3.2335627E-3,0E0,0E0,0E0,0E0],"parents":[2147483647,0,0,1,1,2,2],"right_children":[2,4,6,-1,-1,-1,-1],"split_conditions":[4.9E0,6E0,3.2E0,-1.322907E-3,1.21196415E-2,-9.541795E-3,1.0739782E-2],"split_indices":[2,0,1,0,0,0,0],"split_type":[0,0,0,0,0,0,0],"sum_hessian":[1.2E2,8.3E1,3.7E1,6.5E1,1.8E1,2.7E1,1E1],"tree_param":{"num_deleted":"0","num_feature":"4","num_nodes":"7","size_leaf_vector":"1"}},{"base_weights":[9.911572E-5,5.2975053E-3,-1.5229533E-3,1.262513E-3,2.4412965E-2,1.0404066E-3,-4.945415E-3],"categories":[],"categories_nodes":[],"categories_segments":[],"categories_sizes":[],"default_left":[0,0,0,0,0,0,0],"id":48,"left_children":[1,3,5,-1,-1,-1,-1],"loss_changes":[1.0283575E-3,2.2059698E-3,8.2103437E-4,0E0,0E0,0E0,0E0],"parents":[2147483647,0,0,1,1,2,2],"right_children":[2,4,6,-1,-1,-1,-1],"split_conditions":[2.8E0,1.9E0,6.1E0,1.262513E-3,2.4412965E-2,1.0404066E-3,-4.945415E-3],"split_indices":[1,3,0,0,0,0,0],"split_type":[0,0,0,0,0,0,0],"sum_hessian":[1.2E2,2.8E1,9.2E1,2.4E1,4E0,5.3E1,3.9E1],"tree_param":{"num_deleted":"0","num_feature":"4","num_nodes":"7","size_leaf_vector":"1"}},{"base_weights":[1.7992227E-4,-1.841516E-3,4.6436302E-3,2.0550577E-5,-2.2327185E-2,1.7850077E-2,2.564928E-3],"categories":[],"categories_nodes":[],"categories_segments":[],"categories_sizes":[],"default_left":[0,0,0,0,0,0,0],"id":49,"left_children":[1,3,5,-1,-1,-1,-1],"loss_changes":[1.1003475E-3,3.2046959E-3,9.97402E-4,0E0,0E0,0E0,0E0],"parents":[2147483647,0,0,1,1,2,2],"right_children":[2,4,6,-1,-1,-1,-1],"split_conditions":[6.3E0,5.1E0,2.8E0,2.0550577E-5,-2.2327185E-2,1.7850077E-2,2.564928E-3],"split_indices":[0,2,1,0,0,0,0],"split_type":[0,0,0,0,0,0,0],"sum_hessian":[1.2E2,8.3E1,3.7E1,7.7E1,6E0,4E0,3.3E1],"tree_param":{"num_deleted":"0","num_feature":"4","num_nodes":"7","size_leaf_vector":"1"}},{"base_weights":[-1.5620135E-5,-7.812187E-4,6.404831E-3,8.5862563E-4,-3.8677338E-3,1.1461401E-2,-7.837802E-3],"categories":[],"categories_nodes":[],"categories_segments":[],"categories_sizes":[],"default_left":[0,0,0,0,0,0,0],"id":50,"left_children":[1,3,5,-1,-1,-1,-1],"loss_changes":[5.997776E-4,5.55014E-4,1.0260775E-3,0E0,0E0,0E0,0E0],"parents":[2147483647,0,0,1,1,2,2],"right_children":[2,4,6,-1,-1,-1,-1],"split_conditions":[2.2E0,3.2E0,6.9E0,8.5862563E-4,-3.8677338E-3,1.1461401E-2,-7.837802E-3],"split_indices":[3,1,0,0,0,0,0],"split_type":[0,0,0,0,0,0,0],"sum_hessian":[1.2E2,1.08E2,1.2E1,7.1E1,3.7E1,9E0,3E0],"tree_param":{"num_deleted":"0","num_feature":"4","num_nodes":"7","size_leaf_vector":"1"}},{"base_weights":[5.072508E-6,2.1273817E-3,-2.7580294E-3,1.129568E-3,1.8059462E-2,-2.6595592E-2,-1.3017409E-3],"categories":[],"categories_nodes":[],"categories_segments":[],"categories_sizes":[],"default_left":[0,0,0,0,0,0,0],"id":51,"left_children":[1,3,5,-1,-1,-1,-1],"loss_changes":[7.1543036E-4,1.0765109E-3,1.805241E-3,0E0,0E0,0E0,0E0],"parents":[2147483647,0,0,1,1,2,2],"right_children":[2,4,6,-1,-1,-1,-1],"split_conditions":[5.9E0,5.1E0,6E0,1.129568E-3,1.8059462E-2,-2.6595592E-2,-1.3017409E-3],"split_indices":[0,2,0,0,0,0,0],"split_type":[0,0,0,0,0,0,0],"sum_hessian":[1.2E2,6.8E1,5.2E1,6.5E1,3E0,2E0,5E1],"tree_param":{"num_deleted":"0","num_feature":"4","num_nodes":"7","size_leaf_vector":"1"}},{"base_weights":[-7.196633E-5,-8.524456E-4,5.9540146E-3,2.253395E-4,-4.845362E-3,-8.708056E-3,9.123364E-3],"categories":[],"categories_nodes":[],"categories_segments":[],"categories_sizes":[],"default_left":[0,0,0,0,0,0,0],"id":52,"left_children":[1,3,5,-1,-1,-1,-1],"loss_changes":[5.74157E-4,4.6587051E-4,7.300159E-4,0E0,0E0,0E0,0E0],"parents":[2147483647,0,0,1,1,2,2],"right_children":[2,4,6,-1,-1,-1,-1],"split_conditions":[3.7E0,3.3E0,1.4E0,2.253395E-4,-4.845362E-3,-8.708056E-3,9.123364E-3],"split_indices":[1,1,2,0,0,0,0],"split_type":[0,0,0,0,0,0,0],"sum_hessian":[1.2E2,1.07E2,1.3E1,8.5E1,2.2E1,2E0,1.1E1],"tree_param":{"num_deleted":"0","num_feature":"4","num_nodes":"7","size_leaf_vector":"1"}},{"base_weights":[-3.4736262E-5,-3.8150204E-3,7.5160735E-4,-8.085995E-3,1.6916513E-3,2.976193E-3,-1.4018714E-3],"categories":[],"categories_nodes":[],"categories_segments":[],"categories_sizes":[],"default_left":[0,0,0,0,0,0,0],"id":53,"left_children":[1,3,5,-1,-1,-1,-1],"loss_changes":[3.625522E-4,5.0757464E-4,4.880227E-4,0E0,0E0,0E0,0E0],"parents":[2147483647,0,0,1,1,2,2],"right_children":[2,4,6,-1,-1,-1,-1],"split_conditions":[2.7E0,4.1E0,4.3E0,-8.085995E-3,1.6916513E-3,2.976193E-3,-1.4018714E-3],"split_indices":[1,2,2,0,0,0,0],"split_type":[0,0,0,0,0,0,0],"sum_hessian":[1.2E2,2E1,1E2,1.1E1,9E0,4.9E1,5.1E1],"tree_param":{"num_deleted":"0","num_feature":"4","num_nodes":"7","size_leaf_vector":"1"}},{"base_weights":[-3.9823575E-5,-3.1061468E-3,1.2442166E-3,1.1027292E-4,-6.7074555E-3,7.2273337E-3,-1.9546856E-5],"categories":[],"categories_nodes":[],"categories_segments":[],"categories_sizes":[],"default_left":[0,0,0,0,0,0,0],"id":54,"left_children":[1,3,5,-1,-1,-1,-1],"loss_changes":[4.802759E-4,4.1773915E-4,6.504083E-4,0E0,0E0,0E0,0E0],"parents":[2147483647,0,0,1,1,2,2],"right_children":[2,4,6,-1,-1,-1,-1],"split_conditions":[5.2E0,3.3E0,5.6E0,1.1027292E-4,-6.7074555E-3,7.2273337E-3,-1.9546856E-5],"split_indices":[0,1,0,0,0,0,0],"split_type":[0,0,0,0,0,0,0],"sum_hessian":[1.2E2,3.5E1,8.5E1,1.9E1,1.6E1,1.4E1,7.1E1],"tree_param":{"num_deleted":"0","num_feature":"4","num_nodes":"7","size_leaf_vector":"1"}},{"base_weights":[5.046409E-6,-8.1489776E-4,3.7318359E-3,1.5606487E-3,-2.1755279E-3,-1.4415383E-2,7.3558907E-3],"categories":[],"categories_nodes":[],"categories_segments":[],"categories_sizes":[],"default_left":[0,0,0,0,0,0,0],"id":55,"left_children":[1,3,5,-1,-1,-1,-1],"loss_changes":[3.7278794E-4,3.2661922E-4,1.5529013E-3,0E0,0E0,0E0,0E0],"parents":[2147483647,0,0,1,1,2,2],"right_children":[2,4,6,-1,-1,-1,-1],"split_conditions":[6.6E0,2.9E0,2.9E0,1.5606487E-3,-2.1755279E-3,-1.4415383E-2,7.3558907E-3],"split_indices":[0,1,1,0,0,0,0],"split_type":[0,0,0,0,0,0,0],"sum_hessian":[1.2E2,9.9E1,2.1E1,3.6E1,6.3E1,3E0,1.8E1],"tree_param":{"num_deleted":"0","num_feature":"4","num_nodes":"7","size_leaf_vector":"1"}},{"base_weights":[-6.3428444E-5,9.929619E-4,-2.3969382E-3,3.1152994E-3,-8.221678E-3,-1.6518563E-2,1.3246728E-3],"categories":[],"categories_nodes":[],"categories_segments":[],"categories_sizes":[],"default_left":[0,0,0,0,0,0,0],"id":56,"left_children":[1,3,5,-1,-1,-1,-1],"loss_changes":[3.0065683E-4,1.6683653E-3,2.018979E-3,0E0,0E0,0E0,0E0],"parents":[2147483647,0,0,1,1,2,2],"right_children":[2,4,6,-1,-1,-1,-1],"split_conditions":[4.9E0,6.1E0,6.1E0,3.1152994E-3,-8.221678E-3,-1.6518563E-2,1.3246728E-3],"split_indices":[2,0,0,0,0,0,0],"split_type":[0,0,0,0,0,0,0],"sum_hessian":[1.2E2,8.3E1,3.7E1,6.8E1,1.5E1,7E0,3E1],"tree_param":{"num_deleted":"0","num_feature":"4","num_nodes":"7","size_leaf_vector":"1"}},{"base_weights":[-1.6777006E-4,-2.5191668E-3,1.896805E-3,-1.3773935E-3,-9.340353E-3,6.6045574E-3,-8.385011E-4],"categories":[],"categories_nodes":[],"categories_segments":[],"categories_sizes":[],"default_left":[0,0,0,0,0,0,0],"id":57,"left_children":[1,3,5,-1,-1,-1,-1],"loss_changes":[5.921892E-4,4.3106484E-4,8.425523E-4,0E0,0E0,0E0,0E0],"parents":[2147483647,0,0,1,1,2,2],"right_children":[2,4,6,-1,-1,-1,-1],"split_conditions":[4.2E0,4E0,2.9E0,-1.3773935E-3,-9.340353E-3,6.6045574E-3,-8.385011E-4],"split_indices":[2,2,1,0,0,0,0],"split_type":[0,0,0,0,0,0,0],"sum_hessian":[1.2E2,5.6E1,6.4E1,4.9E1,7E0,2.3E1,4.1E1],"tree_param":{"num_deleted":"0","num_feature":"4","num_nodes":"7","size_leaf_vector":"1"}},{"base_weights":[-4.0921892E-5,7.696881E-4,-4.172987E-3,-4.966905E-4,7.130798E-3,1.266551E-2,-6.7475704E-3],"categories":[],"categories_nodes":[],"categories_segments":[],"categories_sizes":[],"default_left":[0,0,0,0,0,0,0],"id":58,"left_children":[1,3,5,-1,-1,-1,-1],"loss_changes":[4.0850058E-4,8.252103E-4,9.5250376E-4,0E0,0E0,0E0,0E0],"parents":[2147483647,0,0,1,1,2,2],"right_children":[2,4,6,-1,-1,-1,-1],"split_conditions":[5.6E0,1.8E0,1.7E0,-4.966905E-4,7.130798E-3,1.266551E-2,-6.7475704E-3],"split_indices":[2,3,3,0,0,0,0],"split_type":[0,0,0,0,0,0,0],"sum_hessian":[1.2E2,1.01E2,1.9E1,8.5E1,1.6E1,2E0,1.7E1],"tree_param":{"num_deleted":"0","num_feature":"4","num_nodes":"7","size_leaf_vector":"1"}},{"base_weights":[1.03744605E-4,-3.7263373E-3,8.990711E-4,2.9045943E-4,-7.4043763E-3,2.3496815E-3,-2.1612681E-3],"categories":[],"categories_nodes":[],"categories_segments":[],"categories_sizes":[],"default_left":[0,0,0,0,0,0,0],"id":59,"left_children":[1,3,5,-1,-1,-1,-1],"loss_changes":[3.719363E-4,3.1240325E-4,4.5345366E-4,0E0,0E0,0E0,0E0],"parents":[2147483647,0,0,1,1,2,2],"right_children":[2,4,6,-1,-1,-1,-1],"split_conditions":[2.7E0,2.5E0,4.9E0,2.9045943E-4,-7.4043763E-3,2.3496815E-3,-2.1612681E-3],"split_indices":[1,1,2,0,0,0,0],"split_type":[0,0,0,0,0,0,0],"sum_hessian":[1.2E2,2E1,1E2,1E1,1E1,6.8E1,3.2E1],"tree_param":{"num_deleted":"0","num_feature":"4","num_nodes":"7","size_leaf_vector":"1"}},{"base_weights":[-5.7247256E-5,-2.0851123E-3,2.0391673E-3,3.565167E-3,-4.477617E-3,1.0422026E-2,9.147381E-4],"categories":[],"categories_nodes":[],"categories_segments":[],"categories_sizes":[],"default_left":[0,0,0,0,0,0,0],"id":60,"left_children":[1,3,5,-1,-1,-1,-1],"loss_changes":[5.186526E-4,8.5409917E-4,5.560224E-4,0E0,0E0,0E0,0E0],"parents":[2147483647,0,0,1,1,2,2],"right_children":[2,4,6,-1,-1,-1,-1],"split_conditions":[5.8E0,2.9E0,4.3E0,3.565167E-3,-4.477617E-3,1.0422026E-2,9.147381E-4],"split_indices":[0,1,2,0,0,0,0],"split_type":[0,0,0,0,0,0,0],"sum_hessian":[1.2E2,6.1E1,5.9E1,1.8E1,4.3E1,6E0,5.3E1],"tree_param":{"num_deleted":"0","num_feature":"4","num_nodes":"7","size_leaf_vector":"1"}},{"base_weights":[8.6154534E-5,-2.1973322E-3,1.6177257E-3,1.0487713E-3,-9.625086E-3,-1.3702807E-3,5.946211E-3],"categories":[],"categories_nodes":[],"categories_segments":[],"categories_sizes":[],"default_left":[0,0,0,0,0,0,0],"id":61,"left_children":[1,3,5,-1,-1,-1,-1],"loss_changes":[4.2673072E-4,1.1915461E-3,9.522965E-4,0E0,0E0,0E0,0E0],"parents":[2147483647,0,0,1,1,2,2],"right_children":[2,4,6,-1,-1,-1,-1],"split_conditions":[3E0,1.6E0,6E0,1.0487713E-3,-9.625086E-3,-1.3702807E-3,5.946211E-3],"split_indices":[1,3,0,0,0,0,0],"split_type":[0,0,0,0,0,0,0],"sum_hessian":[1.2E2,4.8E1,7.2E1,3.4E1,1.4E1,4.3E1,2.9E1],"tree_param":{"num_deleted":"0","num_feature":"4","num_nodes":"7","size_leaf_vector":"1"}},{"base_weights":[-3.304907E-5,2.4361378E-3,-2.0595002E-3,-1.5036111E-3,5.31482E-3,-6.8519297E-3,1.2561743E-4],"categories":[],"categories_nodes":[],"categories_segments":[],"categories_sizes":[],"default_left":[0,0,0,0,0,0,0],"id":62,"left_children":[1,3,5,-1,-1,-1,-1],"loss_changes":[6.1046326E-4,6.317621E-4,7.024862E-4,0E0,0E0,0E0,0E0],"parents":[2147483647,0,0,1,1,2,2],"right_children":[2,4,6,-1,-1,-1,-1],"split_conditions":[5.7E0,3.1E0,1.5E0,-1.5036111E-3,5.31482E-3,-6.8519297E-3,1.2561743E-4],"split_indices":[0,1,3,0,0,0,0],"split_type":[0,0,0,0,0,0,0],"sum_hessian":[1.2E2,5.4E1,6.6E1,2.3E1,3.1E1,2E1,4.6E1],"tree_param":{"num_deleted":"0","num_feature":"4","num_nodes":"7","size_leaf_vector":"1"}},{"base_weights":[-2.4108978E-5,1.7501465E-3,-2.1147653E-3,-5.4538944E-3,3.620079E-3,3.4791122E-3,-4.439294E-3],"categories":[],"categories_nodes":[],"categories_segments":[],"categories_sizes":[],"default_left":[0,0,0,0,0,0,0],"id":63,"left_children":[1,3,5,-1,-1,-1,-1],"loss_changes":[4.525335E-4,9.088343E-4,7.4362E-4,0E0,0E0,0E0,0E0],"parents":[2147483647,0,0,1,1,2,2],"right_children":[2,4,6,-1,-1,-1,-1],"split_conditions":[3.1E0,5.5E0,5.1E0,-5.4538944E-3,3.620079E-3,3.4791122E-3,-4.439294E-3],"split_indices":[1,0,0,0,0,0,0],"split_type":[0,0,0,0,0,0,0],"sum_hessian":[1.2E2,6.5E1,5.5E1,1.3E1,5.2E1,1.6E1,3.9E1],"tree_param":{"num_deleted":"0","num_feature":"4","num_nodes":"7","size_leaf_vector":"1"}},{"base_weights":[-2.3086437E-5,-6.247654E-4,2.7128675E-3,7.5096794E-4,-4.7820043E-3,2.2507757E-2,6.984557E-4],"categories":[],"categories_nodes":[],"categories_segments":[],"categories_sizes":[],"default_left":[0,0,0,0,0,0,0],"id":64,"left_children":[1,3,5,-1,-1,-1,-1],"loss_changes":[2.00881E-4,5.755164E-4,8.6153066E-4,0E0,0E0,0E0,0E0],"parents":[2147483647,0,0,1,1,2,2],"right_children":[2,4,6,-1,-1,-1,-1],"split_conditions":[6.6E0,6.1E0,6.7E0,7.5096794E-4,-4.7820043E-3,2.2507757E-2,6.984557E-4],"split_indices":[0,0,0,0,0,0,0],"split_type":[0,0,0,0,0,0,0],"sum_hessian":[1.2E2,9.9E1,2.1E1,7.5E1,2.4E1,1E0,2E1],"tree_param":{"num_deleted":"0","num_feature":"4","num_nodes":"7","size_leaf_vector":"1"}},{"base_weights":[1.5845407E-4,-5.8253895E-4,3.1775732E-3,-1.3302245E-4,-2.209282E-2,5.6255385E-3,-1.5274286E-3],"categories":[],"categories_nodes":[],"categories_segments":[],"categories_sizes":[],"default_left":[0,0,0,0,0,0,0],"id":65,"left_children":[1,3,5,-1,-1,-1,-1],"loss_changes":[2.7254576E-4,9.4464526E-4,2.8501695E-4,0E0,0E0,0E0,0E0],"parents":[2147483647,0,0,1,1,2,2],"right_children":[2,4,6,-1,-1,-1,-1],"split_conditions":[5.3E0,5.2E0,7E0,-1.3302245E-4,-2.209282E-2,5.6255385E-3,-1.5274286E-3],"split_indices":[2,2,0,0,0,0,0],"split_type":[0,0,0,0,0,0,0],"sum_hessian":[1.2E2,9.7E1,2.3E1,9.6E1,1E0,1.5E1,8E0],"tree_param":{"num_deleted":"0","num_feature":"4","num_nodes":"7","size_leaf_vector":"1"}},{"base_weights":[-1.4980334E-4,-4.6681272E-4,4.386306E-3,-1.4689288E-4,-1.8308878E-2,7.5095417E-3,-6.143153E-4],"categories":[],"categories_nodes":[],"categories_segments":[],"categories_sizes":[],"default_left":[0,0,0,0,0,0,0],"id":66,"left_children":[1,3,5,-1,-1,-1,-1],"loss_changes":[1.7604427E-4,6.4802606E-4,1.2955816E-4,0E0,0E0,0E0,0E0],"parents":[2147483647,0,0,1,1,2,2],"right_children":[2,4,6,-1,-1,-1,-1],"split_conditions":[7.2E0,7.1E0,2.1E0,-1.4689288E-4,-1.8308878E-2,7.5095417E-3,-6.143153E-4],"split_indices":[0,0,3,0,0,0,0],"split_type":[0,0,0,0,0,0,0],"sum_hessian":[1.2E2,1.13E2,7E0,1.12E2,1E0,4E0,3E0],"tree_param":{"num_deleted":"0","num_feature":"4","num_nodes":"7","size_leaf_vector":"1"}},{"base_weights":[-9.555734E-5,5.2879076E-4,-1.4731806E-3,-1.2026551E-3,6.515456E-3,8.089592E-3,-3.1672246E-3],"categories":[],"categories_nodes":[],"categories_segments":[],"categories_sizes":[],"default_left":[0,0,0,0,0,0,0],"id":67,"left_children":[1,3,5,-1,-1,-1,-1],"loss_changes":[1.0485309E-4,8.785451E-4,6.4121245E-4,0E0,0E0,0E0,0E0],"parents":[2147483647,0,0,1,1,2,2],"right_children":[2,4,6,-1,-1,-1,-1],"split_conditions":[4.9E0,6E0,1.6E0,-1.2026551E-3,6.515456E-3,8.089592E-3,-3.1672246E-3],"split_indices":[2,0,3,0,0,0,0],"split_type":[0,0,0,0,0,0,0],"sum_hessian":[1.2E2,8.3E1,3.7E1,6.5E1,1.8E1,5E0,3.2E1],"tree_param":{"num_deleted":"0","num_feature":"4","num_nodes":"7","size_leaf_vector":"1"}},{"base_weights":[8.4592524E-5,-1.2610271E-3,3.4270014E-3,1.5641688E-3,-8.74234E-3,-5.3726435E-3,5.8187926E-3],"categories":[],"categories_nodes":[],"categories_segments":[],"categories_sizes":[],"default_left":[0,0,0,0,0,0,0],"id":68,"left_children":[1,3,5,-1,-1,-1,-1],"loss_changes":[5.4853247E-4,1.8525216E-3,7.679043E-4,0E0,0E0,0E0,0E0],"parents":[2147483647,0,0,1,1,2,2],"right_children":[2,4,6,-1,-1,-1,-1],"split_conditions":[1.7E0,6E0,6E0,1.5641688E-3,-8.74234E-3,-5.3726435E-3,5.8187926E-3],"split_indices":[3,0,0,0,0,0,0],"split_type":[0,0,0,0,0,0,0],"sum_hessian":[1.2E2,8.6E1,3.4E1,6.3E1,2.3E1,7E0,2.7E1],"tree_param":{"num_deleted":"0","num_feature":"4","num_nodes":"7","size_leaf_vector":"1"}},{"base_weights":[-5.5638768E-5,6.656763E-4,-2.8521155E-3,-2.630824E-4,1.1031002E-2,6.0259104E-3,-3.886114E-3],"categories":[],"categories_nodes":[],"categories_segments":[],"categories_sizes":[],"default_left":[0,0,0,0,0,0,0],"id":69,"left_children":[1,3,5,-1,-1,-1,-1],"loss_changes":[2.4597262E-4,9.3671004E-4,2.5291397E-4,0E0,0E0,0E0,0E0],"parents":[2147483647,0,0,1,1,2,2],"right_children":[2,4,6,-1,-1,-1,-1],"split_conditions":[5.2E0,1.9E0,1.7E0,-2.630824E-4,1.1031002E-2,6.0259104E-3,-3.886114E-3],"split_indices":[2,3,3,0,0,0,0],"split_type":[0,0,0,0,0,0,0],"sum_hessian":[1.2E2,9.6E1,2.4E1,8.9E1,7E0,2E0,2.2E1],"tree_param":{"num_deleted":"0","num_feature":"4","num_nodes":"7","size_leaf_vector":"1"}},{"base_weights":[1.0668674E-4,-6.964876E-4,1.8793172E-3,2.995021E-4,-9.02968E-3,6.562134E-3,-1.1257479E-3],"categories":[],"categories_nodes":[],"categories_segments":[],"categories_sizes":[],"default_left":[0,0,0,0,0,0,0],"id":70,"left_children":[1,3,5,-1,-1,-1,-1],"loss_changes":[1.7358043E-4,6.998854E-4,5.4212974E-4,0E0,0E0,0E0,0E0],"parents":[2147483647,0,0,1,1,2,2],"right_children":[2,4,6,-1,-1,-1,-1],"split_conditions":[6.3E0,6.1E0,1.7E0,2.995021E-4,-9.02968E-3,6.562134E-3,-1.1257479E-3],"split_indices":[0,0,3,0,0,0,0],"split_type":[0,0,0,0,0,0,0],"sum_hessian":[1.2E2,8.3E1,3.7E1,7.5E1,8E0,1.4E1,2.3E1],"tree_param":{"num_deleted":"0","num_feature":"4","num_nodes":"7","size_leaf_vector":"1"}},{"base_weights":[-2.7217648E-5,-6.1384693E-4,2.3693193E-3,5.279225E-4,-8.119872E-3,-6.4480305E-4,5.9900824E-3],"categories":[],"categories_nodes":[],"categories_segments":[],"categories_sizes":[],"default_left":[0,0,0,0,0,0,0],"id":71,"left_children":[1,3,5,-1,-1,-1,-1],"loss_changes":[1.7156574E-4,8.441614E-4,2.6578456E-4,0E0,0E0,0E0,0E0],"parents":[2147483647,0,0,1,1,2,2],"right_children":[2,4,6,-1,-1,-1,-1],"split_conditions":[5.3E0,6.4E0,2.2E0,5.279225E-4,-8.119872E-3,-6.4480305E-4,5.9900824E-3],"split_indices":[2,0,3,0,0,0,0],"split_type":[0,0,0,0,0,0,0],"sum_hessian":[1.2E2,9.7E1,2.3E1,8.5E1,1.2E1,1.3E1,1E1],"tree_param":{"num_deleted":"0","num_feature":"4","num_nodes":"7","size_leaf_vector":"1"}},{"base_weights":[-1.8575294E-5,-1.4053765E-3,1.9124338E-3,-3.3437624E-4,-1.114961E-2,9.357788E-3,-2.432238E-3],"categories":[],"categories_nodes":[],"categories_segments":[],"categories_sizes":[],"default_left":[0,0,0,0,0,0,0],"id":72,"left_children":[1,3,5,-1,-1,-1,-1],"loss_changes":[3.267167E-4,7.372333E-4,1.6724891E-3,0E0,0E0,0E0,0E0],"parents":[2147483647,0,0,1,1,2,2],"right_children":[2,4,6,-1,-1,-1,-1],"split_conditions":[6E0,4.6E0,4.9E0,-3.3437624E-4,-1.114961E-2,9.357788E-3,-2.432238E-3],"split_indices":[0,2,2,0,0,0,0],"split_type":[0,0,0,0,0,0,0],"sum_hessian":[1.2E2,7E1,5E1,6.4E1,6E0,1.8E1,3.2E1],"tree_param":{"num_deleted":"0","num_feature":"4","num_nodes":"7","size_leaf_vector":"1"}},{"base_weights":[-3.7666396E-5,-1.618143E-3,3.892023E-3,-8.6717604E-4,-1.3760567E-2,8.783126E-3,-2.4651065E-3],"categories":[],"categories_nodes":[],"categories_segments":[],"categories_sizes":[],"default_left":[0,0,0,0,0,0,0],"id":73,"left_children":[1,3,5,-1,-1,-1,-1],"loss_changes":[7.5780257E-4,7.8138185E-4,1.1099194E-3,0E0,0E0,0E0,0E0],"parents":[2147483647,0,0,1,1,2,2],"right_children":[2,4,6,-1,-1,-1,-1],"split_conditions":[1.7E0,1.6E0,3.1E0,-8.6717604E-4,-1.3760567E-2,8.783126E-3,-2.4651065E-3],"split_indices":[3,3,1,0,0,0,0],"split_type":[0,0,0,0,0,0,0],"sum_hessian":[1.2E2,8.6E1,3.4E1,8.2E1,4E0,1.9E1,1.5E1],"tree_param":{"num_deleted":"0","num_feature":"4","num_nodes":"7","size_leaf_vector":"1"}},{"base_weights":[-6.868338E-5,-1.0314601E-3,1.580261E-3,1.7148384E-3,-4.7451565E-3,-2.0421185E-3,8.961161E-3],"categories":[],"categories_nodes":[],"categories_segments":[],"categories_sizes":[],"default_left":[0,0,0,0,0,0,0],"id":74,"left_children":[1,3,5,-1,-1,-1,-1],"loss_changes":[1.9372538E-4,7.9345395E-4,1.2214386E-3,0E0,0E0,0E0,0E0],"parents":[2147483647,0,0,1,1,2,2],"right_children":[2,4,6,-1,-1,-1,-1],"split_conditions":[3.2E0,6.1E0,6E0,1.7148384E-3,-4.7451565E-3,-2.0421185E-3,8.961161E-3],"split_indices":[1,0,0,0,0,0,0],"split_type":[0,0,0,0,0,0,0],"sum_hessian":[1.2E2,7.6E1,4.4E1,4.4E1,3.2E1,3E1,1.4E1],"tree_param":{"num_deleted":"0","num_feature":"4","num_nodes":"7","size_leaf_vector":"1"}},{"base_weights":[3.213943E-5,3.008982E-3,-5.8712624E-4,6.85504E-3,-4.4681467E-4,-4.25478E-3,-4.480462E-5],"categories":[],"categories_nodes":[],"categories_segments":[],"categories_sizes":[],"default_left":[0,0,0,0,0,0,0],"id":75,"left_children":[1,3,5,-1,-1,-1,-1],"loss_changes":[2.248249E-4,2.82178E-4,2.0070319E-4,0E0,0E0,0E0,0E0],"parents":[2147483647,0,0,1,1,2,2],"right_children":[2,4,6,-1,-1,-1,-1],"split_conditions":[1.5E0,3.3E0,5.1E0,6.85504E-3,-4.4681467E-4,-4.25478E-3,-4.480462E-5],"split_indices":[2,1,0,0,0,0,0],"split_type":[0,0,0,0,0,0,0],"sum_hessian":[1.2E2,2E1,1E2,9E0,1.1E1,1.2E1,8.8E1],"tree_param":{"num_deleted":"0","num_feature":"4","num_nodes":"7","size_leaf_vector":"1"}},{"base_weights":[1.7439543E-5,5.4025935E-4,-3.2127674E-3,9.624363E-5,7.850478E-3,-6.35469E-4,-6.0327947E-3],"categories":[],"categories_nodes":[],"categories_segments":[],"categories_sizes":[],"default_left":[0,0,0,0,0,0,0],"id":76,"left_children":[1,3,5,-1,-1,-1,-1],"loss_changes":[2.0608249E-4,3.400589E-4,1.1972325E-4,0E0,0E0,0E0,0E0],"parents":[2147483647,0,0,1,1,2,2],"right_children":[2,4,6,-1,-1,-1,-1],"split_conditions":[2.1E0,7E0,3.3E0,9.624363E-5,7.850478E-3,-6.35469E-4,-6.0327947E-3],"split_indices":[3,0,1,0,0,0,0],"split_type":[0,0,0,0,0,0,0],"sum_hessian":[1.2E2,1.04E2,1.6E1,9.9E1,5E0,9E0,7E0],"tree_param":{"num_deleted":"0","num_feature":"4","num_nodes":"7","size_leaf_vector":"1"}},{"base_weights":[1.056859E-5,-3.5701366E-3,4.7463624E-4,-1.8497385E-3,-9.261684E-3,3.205468E-3,-3.8652358E-4],"categories":[],"categories_nodes":[],"categories_segments":[],"categories_sizes":[],"default_left":[0,0,0,0,0,0,0],"id":77,"left_children":[1,3,5,-1,-1,-1,-1],"loss_changes":[2.0275892E-4,1.19952485E-4,2.5522072E-4,0E0,0E0,0E0,0E0],"parents":[2147483647,0,0,1,1,2,2],"right_children":[2,4,6,-1,-1,-1,-1],"split_conditions":[4.9E0,3E-1,1.9E0,-1.8497385E-3,-9.261684E-3,3.205468E-3,-3.8652358E-4],"split_indices":[0,3,2,0,0,0,0],"split_type":[0,0,0,0,0,0,0],"sum_hessian":[1.2E2,1.3E1,1.07E2,1.1E1,2E0,2.5E1,8.2E1],"tree_param":{"num_deleted":"0","num_feature":"4","num_nodes":"7","size_leaf_vector":"1"}},{"base_weights":[-6.855498E-5,-7.5124315E-4,8.831982E-4,3.3481405E-3,-2.9157824E-3,-6.160246E-3,2.336868E-3],"categories":[],"categories_nodes":[],"categories_segments":[],"categories_sizes":[],"default_left":[0,0,0,0,0,0,0],"id":78,"left_children":[1,3,5,-1,-1,-1,-1],"loss_changes":[7.928333E-5,6.397651E-4,5.365766E-4,0E0,0E0,0E0,0E0],"parents":[2147483647,0,0,1,1,2,2],"right_children":[2,4,6,-1,-1,-1,-1],"split_conditions":[6E0,2.9E0,2.8E0,3.3481405E-3,-2.9157824E-3,-6.160246E-3,2.336868E-3],"split_indices":[0,1,1,0,0,0,0],"split_type":[0,0,0,0,0,0,0],"sum_hessian":[1.2E2,7E1,5E1,2.4E1,4.6E1,8E0,4.2E1],"tree_param":{"num_deleted":"0","num_feature":"4","num_nodes":"7","size_leaf_vector":"1"}},{"base_weights":[-2.8031905E-5,2.491823E-3,-1.2568875E-3,-6.7907904E-4,3.571426E-3,-5.8171703E-3,-3.920223E-4],"categories":[],"categories_nodes":[],"categories_segments":[],"categories_sizes":[],"default_left":[0,0,0,0,0,0,0],"id":79,"left_children":[1,3,5,-1,-1,-1,-1],"loss_changes":[3.77813E-4,1.393579E-4,3.2113E-4,0E0,0E0,0E0,0E0],"parents":[2147483647,0,0,1,1,2,2],"right_children":[2,4,6,-1,-1,-1,-1],"split_conditions":[3E0,3.2E0,1.3E0,-6.7907904E-4,3.571426E-3,-5.8171703E-3,-3.920223E-4],"split_indices":[2,1,3,0,0,0,0],"split_type":[0,0,0,0,0,0,0],"sum_hessian":[1.2E2,3.9E1,8.1E1,1E1,2.9E1,1.2E1,6.9E1],"tree_param":{"num_deleted":"0","num_feature":"4","num_nodes":"7","size_leaf_vector":"1"}},{"base_weights":[-2.740309E-5,2.3855062E-3,-7.79521E-4,5.349979E-3,-6.064981E-3,4.292827E-4,-2.391918E-3],"categories":[],"categories_nodes":[],"categories_segments":[],"categories_sizes":[],"default_left":[0,0,0,0,0,0,0],"id":80,"left_children":[1,3,5,-1,-1,-1,-1],"loss_changes":[2.2144943E-4,7.5893337E-4,1.8229045E-4,0E0,0E0,0E0,0E0],"parents":[2147483647,0,0,1,1,2,2],"right_children":[2,4,6,-1,-1,-1,-1],"split_conditions":[2.8E0,1.6E0,6.1E0,5.349979E-3,-6.064981E-3,4.292827E-4,-2.391918E-3],"split_indices":[1,3,0,0,0,0,0],"split_type":[0,0,0,0,0,0,0],"sum_hessian":[1.2E2,2.8E1,9.2E1,2.1E1,7E0,5.3E1,3.9E1],"tree_param":{"num_deleted":"0","num_feature":"4","num_nodes":"7","size_leaf_vector":"1"}},{"base_weights":[-2.2137778E-5,-1.435167E-3,1.9454547E-3,-2.1139083E-3,1.04622245E-2,-2.7240913E-3,3.2976822E-3],"categories":[],"categories_nodes":[],"categories_segments":[],"categories_sizes":[],"default_left":[0,0,0,0,0,0,0],"id":81,"left_children":[1,3,5,-1,-1,-1,-1],"loss_changes":[3.3920418E-4,5.9545884E-4,3.3101186E-4,0E0,0E0,0E0,0E0],"parents":[2147483647,0,0,1,1,2,2],"right_children":[2,4,6,-1,-1,-1,-1],"split_conditions":[6E0,5.1E0,4.7E0,-2.1139083E-3,1.04622245E-2,-2.7240913E-3,3.2976822E-3],"split_indices":[0,2,2,0,0,0,0],"split_type":[0,0,0,0,0,0,0],"sum_hessian":[1.2E2,7E1,5E1,6.7E1,3E0,1.1E1,3.9E1],"tree_param":{"num_deleted":"0","num_feature":"4","num_nodes":"7","size_leaf_vector":"1"}},{"base_weights":[7.37456E-5,7.489364E-4,-2.9986554E-3,9.5814513E-4,-6.3348613E-3,-6.7346096E-3,-3.8278103E-4],"categories":[],"categories_nodes":[],"categories_segments":[],"categories_sizes":[],"default_left":[0,0,0,0,0,0,0],"id":82,"left_children":[1,3,5,-1,-1,-1,-1],"loss_changes":[2.532551E-4,1.5426896E-4,2.1242343E-4,0E0,0E0,0E0,0E0],"parents":[2147483647,0,0,1,1,2,2],"right_children":[2,4,6,-1,-1,-1,-1],"split_conditions":[2E0,7.3E0,3.1E0,9.5814513E-4,-6.3348613E-3,-6.7346096E-3,-3.8278103E-4],"split_indices":[3,0,1,0,0,0,0],"split_type":[0,0,0,0,0,0,0],"sum_hessian":[1.2E2,9.9E1,2.1E1,9.7E1,2E0,8E0,1.3E1],"tree_param":{"num_deleted":"0","num_feature":"4","num_nodes":"7","size_leaf_vector":"1"}},{"base_weights":[-1.03278886E-4,1.383996E-4,-4.058957E-3,-3.747735E-4,2.750999E-3,-1.2736082E-3,-7.3482194E-3],"categories":[],"categories_nodes":[],"categories_segments":[],"categories_sizes":[],"default_left":[0,0,0,0,0,0,0],"id":83,"left_children":[1,3,5,-1,-1,-1,-1],"loss_changes":[1.16238036E-4,1.552133E-4,5.477346E-5,0E0,0E0,0E0,0E0],"parents":[2147483647,0,0,1,1,2,2],"right_children":[2,4,6,-1,-1,-1,-1],"split_conditions":[2.4E0,5.3E0,3.4E0,-3.747735E-4,2.750999E-3,-1.2736082E-3,-7.3482194E-3],"split_indices":[3,2,1,0,0,0,0],"split_type":[0,0,0,0,0,0,0],"sum_hessian":[1.2E2,1.14E2,6E0,9.6E1,1.8E1,4E0,2E0],"tree_param":{"num_deleted":"0","num_feature":"4","num_nodes":"7","size_leaf_vector":"1"}},{"base_weights":[-5.1609743E-5,4.182694E-4,-2.3090472E-3,1.6232253E-4,1.3006479E-2,-6.3890642E-3,-2.5110244E-4],"categories":[],"categories_nodes":[],"categories_segments":[],"categories_sizes":[],"default_left":[0,0,0,0,0,0,0],"id":84,"left_children":[1,3,5,-1,-1,-1,-1],"loss_changes":[1.2931324E-4,3.2330197E-4,1.7472112E-4,0E0,0E0,0E0,0E0],"parents":[2147483647,0,0,1,1,2,2],"right_children":[2,4,6,-1,-1,-1,-1],"split_conditions":[6.7E0,6.6E0,5.2E0,1.6232253E-4,1.3006479E-2,-6.3890642E-3,-2.5110244E-4],"split_indices":[0,0,2,0,0,0,0],"split_type":[0,0,0,0,0,0,0],"sum_hessian":[1.2E2,1E2,2E1,9.9E1,1E0,6E0,1.4E1],"tree_param":{"num_deleted":"0","num_feature":"4","num_nodes":"7","size_leaf_vector":"1"}},{"base_weights":[5.3937572E-5,1.2746671E-3,-4.9893936E-4,-4.679483E-3,2.1127872E-3,5.760046E-4,-3.2102994E-3],"categories":[],"categories_nodes":[],"categories_segments":[],"categories_sizes":[],"default_left":[0,0,0,0,0,0,0],"id":85,"left_children":[1,3,5,-1,-1,-1,-1],"loss_changes":[8.230049E-5,1.9951788E-4,2.466722E-4,0E0,0E0,0E0,0E0],"parents":[2147483647,0,0,1,1,2,2],"right_children":[2,4,6,-1,-1,-1,-1],"split_conditions":[5.3E0,2.5E0,3.2E0,-4.679483E-3,2.1127872E-3,5.760046E-4,-3.2102994E-3],"split_indices":[0,1,1,0,0,0,0],"split_type":[0,0,0,0,0,0,0],"sum_hessian":[1.2E2,3.7E1,8.3E1,4E0,3.3E1,6E1,2.3E1],"tree_param":{"num_deleted":"0","num_feature":"4","num_nodes":"7","size_leaf_vector":"1"}},{"base_weights":[-4.298933E-5,-7.433112E-4,1.506222E-3,-7.274227E-5,-8.109177E-3,5.989677E-3,-9.173566E-5],"categories":[],"categories_nodes":[],"categories_segments":[],"categories_sizes":[],"default_left":[0,0,0,0,0,0,0],"id":86,"left_children":[1,3,5,-1,-1,-1,-1],"loss_changes":[1.3239813E-4,4.143131E-4,2.7279556E-4,0E0,0E0,0E0,0E0],"parents":[2147483647,0,0,1,1,2,2],"right_children":[2,4,6,-1,-1,-1,-1],"split_conditions":[6.3E0,5.1E0,2.9E0,-7.274227E-5,-8.109177E-3,5.989677E-3,-9.173566E-5],"split_indices":[0,2,1,0,0,0,0],"split_type":[0,0,0,0,0,0,0],"sum_hessian":[1.2E2,8.3E1,3.7E1,7.7E1,6E0,9E0,2.8E1],"tree_param":{"num_deleted":"0","num_feature":"4","num_nodes":"7","size_leaf_vector":"1"}},{"base_weights":[-1.8873083E-5,-6.237633E-4,2.2152937E-3,-2.5602998E-3,8.051966E-4,5.212671E-3,-4.025605E-3],"categories":[],"categories_nodes":[],"categories_segments":[],"categories_sizes":[],"default_left":[0,0,0,0,0,0,0],"id":87,"left_children":[1,3,5,-1,-1,-1,-1],"loss_changes":[1.6490434E-4,2.677159E-4,5.073488E-4,0E0,0E0,0E0,0E0],"parents":[2147483647,0,0,1,1,2,2],"right_children":[2,4,6,-1,-1,-1,-1],"split_conditions":[1.9E0,3E0,6.9E0,-2.5602998E-3,8.051966E-4,5.212671E-3,-4.025605E-3],"split_indices":[3,1,0,0,0,0,0],"split_type":[0,0,0,0,0,0,0],"sum_hessian":[1.2E2,9.5E1,2.5E1,4E1,5.5E1,1.7E1,8E0],"tree_param":{"num_deleted":"0","num_feature":"4","num_nodes":"7","size_leaf_vector":"1"}},{"base_weights":[-4.6980103E-6,-1.2609095E-4,4.8121214E-3,3.0485136E-4,-2.5610924E-3],"categories":[],"categories_nodes":[],"categories_segments":[],"categories_sizes":[],"default_left":[0,0,0,0,0],"id":88,"left_children":[1,3,-1,-1,-1],"loss_changes":[7.1358845E-5,1.2565283E-4,0E0,0E0,0E0],"parents":[2147483647,0,0,1,1],"right_children":[2,4,-1,-1,-1],"split_conditions":[6.6E0,5.6E0,4.8121214E-3,3.0485136E-4,-2.5610924E-3],"split_indices":[2,2,0,0,0],"split_type":[0,0,0,0,0],"sum_hessian":[1.2E2,1.18E2,2E0,1.01E2,1.7E1],"tree_param":{"num_deleted":"0","num_feature":"4","num_nodes":"5","size_leaf_vector":"1"}},{"base_weights":[2.1123216E-5,-1.5894559E-3,5.695499E-4,8.805776E-4,-3.1958232E-3,-1.389622E-4,4.8313118E-3],"categories":[],"categories_nodes":[],"categories_segments":[],"categories_sizes":[],"default_left":[0,0,0,0,0,0,0],"id":89,"left_children":[1,3,5,-1,-1,-1,-1],"loss_changes":[1.07782704E-4,1.258154E-4,2.7544677E-4,0E0,0E0,0E0,0E0],"parents":[2147483647,0,0,1,1,2,2],"right_children":[2,4,6,-1,-1,-1,-1],"split_conditions":[1.6E0,3.3E0,3.4E0,8.805776E-4,-3.1958232E-3,-1.389622E-4,4.8313118E-3],"split_indices":[2,1,1,0,0,0,0],"split_type":[0,0,0,0,0,0,0],"sum_hessian":[1.2E2,3E1,9E1,1.2E1,1.8E1,7.8E1,1.2E1],"tree_param":{"num_deleted":"0","num_feature":"4","num_nodes":"7","size_leaf_vector":"1"}},{"base_weights":[1.965822E-5,-7.703997E-5,5.8117206E-3,5.6331063E-4,-1.1959026E-3],"categories":[],"categories_nodes":[],"categories_segments":[],"categories_sizes":[],"default_left":[0,0,0,0,0],"id":90,"left_children":[1,3,-1,-1,-1],"loss_changes":[6.8217654E-5,8.6649394E-5,0E0,0E0,0E0],"parents":[2147483647,0,0,1,1],"right_children":[2,4,-1,-1,-1],"split_conditions":[4.2E0,3.2E0,5.8117206E-3,5.6331063E-4,-1.1959026E-3],"split_indices":[1,1,0,0,0],"split_type":[0,0,0,0,0],"sum_hessian":[1.2E2,1.19E2,1E0,7.6E1,4.3E1],"tree_param":{"num_deleted":"0","num_feature":"4","num_nodes":"5","size_leaf_vector":"1"}},{"base_weights":[4.2808635E-5,-3.711335E-4,1.0304812E-3,5.7108805E-4,-2.242779E-3,-4.7014495E-3,1.694034E-3],"categories":[],"categories_nodes":[],"categories_segments":[],"categories_sizes":[],"default_left":[0,0,0,0,0,0,0],"id":91,"left_children":[1,3,5,-1,-1,-1,-1],"loss_changes":[4.9852002E-5,1.5294222E-4,1.448882E-4,0E0,0E0,0E0,0E0],"parents":[2147483647,0,0,1,1,2,2],"right_children":[2,4,6,-1,-1,-1,-1],"split_conditions":[3.3E0,1.6E0,4.9E0,5.7108805E-4,-2.242779E-3,-4.7014495E-3,1.694034E-3],"split_indices":[1,3,0,0,0,0,0],"split_type":[0,0,0,0,0,0,0],"sum_hessian":[1.2E2,8.5E1,3.5E1,5.7E1,2.8E1,3E0,3.2E1],"tree_param":{"num_deleted":"0","num_feature":"4","num_nodes":"7","size_leaf_vector":"1"}},{"base_weights":[-3.8669372E-5,-9.009102E-4,8.529573E-4,1.8701776E-3,-2.077041E-3,-8.63061E-3,1.684473E-3],"categories":[],"categories_nodes":[],"categories_segments":[],"categories_sizes":[],"default_left":[0,0,0,0,0,0,0],"id":92,"left_children":[1,3,5,-1,-1,-1,-1],"loss_changes":[9.379288E-5,2.059525E-4,4.8768215E-4,0E0,0E0,0E0,0E0],"parents":[2147483647,0,0,1,1,2,2],"right_children":[2,4,6,-1,-1,-1,-1],"split_conditions":[5.8E0,2.9E0,4.1E0,1.8701776E-3,-2.077041E-3,-8.63061E-3,1.684473E-3],"split_indices":[0,1,2,0,0,0,0],"split_type":[0,0,0,0,0,0,0],"sum_hessian":[1.2E2,6.1E1,5.9E1,1.8E1,4.3E1,4E0,5.5E1],"tree_param":{"num_deleted":"0","num_feature":"4","num_nodes":"7","size_leaf_vector":"1"}},{"base_weights":[-5.9098496E-5,1.2342192E-3,-1.5328976E-3,3.203922E-4,2.9859573E-2,1.257201E-2,-2.2743854E-3],"categories":[],"categories_nodes":[],"categories_segments":[],"categories_sizes":[],"default_left":[0,0,0,0,0,0,0],"id":93,"left_children":[1,3,5,-1,-1,-1,-1],"loss_changes":[2.3252888E-4,1.6907436E-3,6.2473473E-4,0E0,0E0,0E0,0E0],"parents":[2147483647,0,0,1,1,2,2],"right_children":[2,4,6,-1,-1,-1,-1],"split_conditions":[4.5E0,1.5E0,1.4E0,3.203922E-4,2.9859573E-2,1.257201E-2,-2.2743854E-3],"split_indices":[2,3,3,0,0,0,0],"split_type":[0,0,0,0,0,0,0],"sum_hessian":[1.2E2,6.4E1,5.6E1,6.3E1,1E0,2E0,5.4E1],"tree_param":{"num_deleted":"0","num_feature":"4","num_nodes":"7","size_leaf_vector":"1"}},{"base_weights":[3.3451125E-4,2.6379386E-3,-1.4773119E-4,-1.651629E-3,4.0816553E-3,-1.5151096E-3,1.2225439E-3],"categories":[],"categories_nodes":[],"categories_segments":[],"categories_sizes":[],"default_left":[0,0,0,0,0,0,0],"id":94,"left_children":[1,3,5,-1,-1,-1,-1],"loss_changes":[1.3479777E-4,1.367927E-4,1.9109441E-4,0E0,0E0,0E0,0E0],"parents":[2147483647,0,0,1,1,2,2],"right_children":[2,4,6,-1,-1,-1,-1],"split_conditions":[1.5E0,3.1E0,6E0,-1.651629E-3,4.0816553E-3,-1.5151096E-3,1.2225439E-3],"split_indices":[2,1,0,0,0,0,0],"split_type":[0,0,0,0,0,0,0],"sum_hessian":[1.2E2,2E1,1E2,5E0,1.5E1,5E1,5E1],"tree_param":{"num_deleted":"0","num_feature":"4","num_nodes":"7","size_leaf_vector":"1"}},{"base_weights":[1.7675864E-5,6.5857073E-4,-1.0415782E-3,1.2318664E-3,-7.7286004E-3,-8.584487E-3,1.0251966E-3],"categories":[],"categories_nodes":[],"categories_segments":[],"categories_sizes":[],"default_left":[0,0,0,0,0,0,0],"id":95,"left_children":[1,3,5,-1,-1,-1,-1],"loss_changes":[8.282928E-5,3.749536E-4,7.2591763E-4,0E0,0E0,0E0,0E0],"parents":[2147483647,0,0,1,1,2,2],"right_children":[2,4,6,-1,-1,-1,-1],"split_conditions":[6.1E0,5.1E0,4.7E0,1.2318664E-3,-7.7286004E-3,-8.584487E-3,1.0251966E-3],"split_indices":[0,2,2,0,0,0,0],"split_type":[0,0,0,0,0,0,0],"sum_hessian":[1.2E2,7.5E1,4.5E1,7.1E1,4E0,9E0,3.6E1],"tree_param":{"num_deleted":"0","num_feature":"4","num_nodes":"7","size_leaf_vector":"1"}},{"base_weights":[-1.1617067E-4,-1.2810179E-3,1.0894409E-3,-4.3027208E-4,-6.9697676E-3,8.4912265E-3,-4.8365233E-5],"categories":[],"categories_nodes":[],"categories_segments":[],"categories_sizes":[],"default_left":[0,0,0,0,0,0,0],"id":96,"left_children":[1,3,5,-1,-1,-1,-1],"loss_changes":[1.7132233E-4,2.9706128E-4,5.057185E-4,0E0,0E0,0E0,0E0],"parents":[2147483647,0,0,1,1,2,2],"right_children":[2,4,6,-1,-1,-1,-1],"split_conditions":[5.8E0,5.7E0,5.9E0,-4.3027208E-4,-6.9697676E-3,8.4912265E-3,-4.8365233E-5],"split_indices":[0,0,0,0,0,0,0],"split_type":[0,0,0,0,0,0,0],"sum_hessian":[1.2E2,6.1E1,5.9E1,5.4E1,7E0,7E0,5.2E1],"tree_param":{"num_deleted":"0","num_feature":"4","num_nodes":"7","size_leaf_vector":"1"}},{"base_weights":[8.623979E-6,-3.2578914E-3,3.3225503E-4,8.0570835E-4,-4.882455E-3,5.2369025E-4,-3.8309097E-3],"categories":[],"categories_nodes":[],"categories_segments":[],"categories_sizes":[],"default_left":[0,0,0,0,0,0,0],"id":97,"left_children":[1,3,5,-1,-1,-1,-1],"loss_changes":[1.2899711E-4,7.6551165E-5,9.047059E-5,0E0,0E0,0E0,0E0],"parents":[2147483647,0,0,1,1,2,2],"right_children":[2,4,6,-1,-1,-1,-1],"split_conditions":[1.4E0,3.1E0,7.4E0,8.0570835E-4,-4.882455E-3,5.2369025E-4,-3.8309097E-3],"split_indices":[2,1,0,0,0,0,0],"split_type":[0,0,0,0,0,0,0],"sum_hessian":[1.2E2,1E1,1.1E2,3E0,7E0,1.06E2,4E0],"tree_param":{"num_deleted":"0","num_feature":"4","num_nodes":"7","size_leaf_vector":"1"}},{"base_weights":[-6.1036844E-5,-6.396497E-4,7.4567983E-4,3.5891997E-5,-1.5963892E-2,8.260071E-3,-2.5066864E-4],"categories":[],"categories_nodes":[],"categories_segments":[],"categories_sizes":[],"default_left":[0,0,0,0,0,0,0],"id":98,"left_children":[1,3,5,-1,-1,-1,-1],"loss_changes":[5.6956946E-5,7.355767E-4,3.8390508E-4,0E0,0E0,0E0,0E0],"parents":[2147483647,0,0,1,1,2,2],"right_children":[2,4,6,-1,-1,-1,-1],"split_conditions":[6E0,5.9E0,6.1E0,3.5891997E-5,-1.5963892E-2,8.260071E-3,-2.5066864E-4],"split_indices":[0,0,0,0,0,0,0],"split_type":[0,0,0,0,0,0,0],"sum_hessian":[1.2E2,7E1,5E1,6.8E1,2E0,5E0,4.5E1],"tree_param":{"num_deleted":"0","num_feature":"4","num_nodes":"7","size_leaf_vector":"1"}},{"base_weights":[-6.5443906E-5,5.280385E-4,-7.41074E-4,-1.7670072E-4,2.2815675E-2,8.800943E-3,-1.2480735E-3],"categories":[],"categories_nodes":[],"categories_segments":[],"categories_sizes":[],"default_left":[0,0,0,0,0,0,0],"id":99,"left_children":[1,3,5,-1,-1,-1,-1],"loss_changes":[4.8909238E-5,1.0249846E-3,2.8673877E-4,0E0,0E0,0E0,0E0],"parents":[2147483647,0,0,1,1,2,2],"right_children":[2,4,6,-1,-1,-1,-1],"split_conditions":[4.5E0,1.5E0,1.4E0,-1.7670072E-4,2.2815675E-2,8.800943E-3,-1.2480735E-3],"split_indices":[2,3,3,0,0,0,0],"split_type":[0,0,0,0,0,0,0],"sum_hessian":[1.2E2,6.4E1,5.6E1,6.3E1,1E0,2E0,5.4E1],"tree_param":{"num_deleted":"0","num_feature":"4","num_nodes":"7","size_leaf_vector":"1"}},{"base_weights":[2.4953918E-4,-3.704358E-4,1.7834902E-3,-7.660534E-4,1.0962208E-2,4.412969E-3,-3.6240916E-3],"categories":[],"categories_nodes":[],"categories_segments":[],"categories_sizes":[],"default_left":[0,0,0,0,0,0,0],"id":100,"left_children":[1,3,5,-1,-1,-1,-1],"loss_changes":[1.15733026E-4,3.9845283E-4,5.1366223E-4,0E0,0E0,0E0,0E0],"parents":[2147483647,0,0,1,1,2,2],"right_children":[2,4,6,-1,-1,-1,-1],"split_conditions":[1.7E0,5.2E0,3.2E0,-7.660534E-4,1.0962208E-2,4.412969E-3,-3.6240916E-3],"split_indices":[3,2,1,0,0,0,0],"split_type":[0,0,0,0,0,0,0],"sum_hessian":[1.2E2,8.6E1,3.4E1,8.4E1,2E0,2.3E1,1.1E1],"tree_param":{"num_deleted":"0","num_feature":"4","num_nodes":"7","size_leaf_vector":"1"}},{"base_weights":[9.0785696E-5,-1.0273969E-3,1.4070226E-3,1.52097E-4,-5.8478024E-3,-2.3344991E-4,3.9529097E-3],"categories":[],"categories_nodes":[],"categories_segments":[],"categories_sizes":[],"default_left":[0,0,0,0,0,0,0],"id":101,"left_children":[1,3,5,-1,-1,-1,-1],"loss_changes":[1.7953254E-4,3.761416E-4,2.3480445E-4,0E0,0E0,0E0,0E0],"parents":[2147483647,0,0,1,1,2,2],"right_children":[2,4,6,-1,-1,-1,-1],"split_conditions":[3.1E0,5.2E0,6E0,1.52097E-4,-5.8478024E-3,-2.3344991E-4,3.9529097E-3],"split_indices":[1,2,0,0,0,0,0],"split_type":[0,0,0,0,0,0,0],"sum_hessian":[1.2E2,6.5E1,5.5E1,5.3E1,1.2E1,3.4E1,2.1E1],"tree_param":{"num_deleted":"0","num_feature":"4","num_nodes":"7","size_leaf_vector":"1"}},{"base_weights":[-1.6340842E-5,1.0900574E-3,-1.2777364E-3,4.312529E-4,7.4964263E-3,-2.4504568E-3,2.8799681E-3],"categories":[],"categories_nodes":[],"categories_segments":[],"categories_sizes":[],"default_left":[0,0,0,0,0,0,0],"id":102,"left_children":[1,3,5,-1,-1,-1,-1],"loss_changes":[1.7026113E-4,2.711026E-4,2.8497927E-4,0E0,0E0,0E0,0E0],"parents":[2147483647,0,0,1,1,2,2],"right_children":[2,4,6,-1,-1,-1,-1],"split_conditions":[4.5E0,5.9E0,5.8E0,4.312529E-4,7.4964263E-3,-2.4504568E-3,2.8799681E-3],"split_indices":[2,0,2,0,0,0,0],"split_type":[0,0,0,0,0,0,0],"sum_hessian":[1.2E2,6.4E1,5.6E1,5.9E1,5E0,4.4E1,1.2E1],"tree_param":{"num_deleted":"0","num_feature":"4","num_nodes":"7","size_leaf_vector":"1"}},{"base_weights":[6.9071786E-5,9.144648E-4,-5.1896606E-4,1.3924546E-4,6.5761996E-3,-8.330834E-3,6.306785E-5],"categories":[],"categories_nodes":[],"categories_segments":[],"categories_sizes":[],"default_left":[0,0,0,0,0,0,0],"id":103,"left_children":[1,3,5,-1,-1,-1,-1],"loss_changes":[6.0626466E-5,2.1853861E-4,3.2789298E-4,0E0,0E0,0E0,0E0],"parents":[2147483647,0,0,1,1,2,2],"right_children":[2,4,6,-1,-1,-1,-1],"split_conditions":[4E0,5.6E0,4.1E0,1.3924546E-4,6.5761996E-3,-8.330834E-3,6.306785E-5],"split_indices":[2,0,2,0,0,0,0],"split_type":[0,0,0,0,0,0,0],"sum_hessian":[1.2E2,4.9E1,7.1E1,4.4E1,5E0,4E0,6.7E1],"tree_param":{"num_deleted":"0","num_feature":"4","num_nodes":"7","size_leaf_vector":"1"}},{"base_weights":[-1.28443235E-5,1.1788257E-3,-5.9399015E-4,-6.358191E-4,4.594296E-3,-4.157577E-3,-9.769074E-5],"categories":[],"categories_nodes":[],"categories_segments":[],"categories_sizes":[],"default_left":[0,0,0,0,0,0,0],"id":104,"left_children":[1,3,5,-1,-1,-1,-1],"loss_changes":[8.449684E-5,2.508358E-4,1.4461954E-4,0E0,0E0,0E0,0E0],"parents":[2147483647,0,0,1,1,2,2],"right_children":[2,4,6,-1,-1,-1,-1],"split_conditions":[2.9E0,6.1E0,3E0,-6.358191E-4,4.594296E-3,-4.157577E-3,-9.769074E-5],"split_indices":[1,0,1,0,0,0,0],"split_type":[0,0,0,0,0,0,0],"sum_hessian":[1.2E2,3.9E1,8.1E1,2.6E1,1.3E1,9E0,7.2E1],"tree_param":{"num_deleted":"0","num_feature":"4","num_nodes":"7","size_leaf_vector":"1"}},{"base_weights":[-2.454355E-6,1.1309605E-3,-9.3283295E-4,6.533212E-4,9.192268E-3,-3.0513888E-3,-2.083568E-4],"categories":[],"categories_nodes":[],"categories_segments":[],"categories_sizes":[],"default_left":[0,0,0,0,0,0,0],"id":105,"left_children":[1,3,5,-1,-1,-1,-1],"loss_changes":[1.2865009E-4,2.0576635E-4,1.02198705E-4,0E0,0E0,0E0,0E0],"parents":[2147483647,0,0,1,1,2,2],"right_children":[2,4,6,-1,-1,-1,-1],"split_conditions":[5.7E0,1.6E0,6E0,6.533212E-4,9.192268E-3,-3.0513888E-3,-2.083568E-4],"split_indices":[0,3,0,0,0,0,0],"split_type":[0,0,0,0,0,0,0],"sum_hessian":[1.2E2,5.4E1,6.6E1,5.2E1,2E0,1.6E1,5E1],"tree_param":{"num_deleted":"0","num_feature":"4","num_nodes":"7","size_leaf_vector":"1"}},{"base_weights":[5.4439974E-5,4.3427126E-4,-1.0623047E-3,-9.548594E-6,4.479024E-3,-4.375684E-3,4.920634E-4],"categories":[],"categories_nodes":[],"categories_segments":[],"categories_sizes":[],"default_left":[0,0,0,0,0,0,0],"id":106,"left_children":[1,3,5,-1,-1,-1,-1],"loss_changes":[5.1786454E-5,1.6340065E-4,1.6180967E-4,0E0,0E0,0E0,0E0],"parents":[2147483647,0,0,1,1,2,2],"right_children":[2,4,6,-1,-1,-1,-1],"split_conditions":[6.4E0,1.9E0,5E0,-9.548594E-6,4.479024E-3,-4.375684E-3,4.920634E-4],"split_indices":[0,3,2,0,0,0,0],"split_type":[0,0,0,0,0,0,0],"sum_hessian":[1.2E2,9E1,3E1,8.2E1,8E0,9E0,2.1E1],"tree_param":{"num_deleted":"0","num_feature":"4","num_nodes":"7","size_leaf_vector":"1"}},{"base_weights":[4.835989E-6,8.0667366E-4,-1.701763E-3,1.3913383E-4,1.3955802E-2,4.62882E-3,-2.9930454E-3],"categories":[],"categories_nodes":[],"categories_segments":[],"categories_sizes":[],"default_left":[0,0,0,0,0,0,0],"id":107,"left_children":[1,3,5,-1,-1,-1,-1],"loss_changes":[1.6695104E-4,7.2659634E-4,3.3266252E-4,0E0,0E0,0E0,0E0],"parents":[2147483647,0,0,1,1,2,2],"right_children":[2,4,6,-1,-1,-1,-1],"split_conditions":[1.6E0,5E0,4.9E0,1.3913383E-4,1.3955802E-2,4.62882E-3,-2.9930454E-3],"split_indices":[3,2,2,0,0,0,0],"split_type":[0,0,0,0,0,0,0],"sum_hessian":[1.2E2,8.2E1,3.8E1,7.9E1,3E0,6E0,3.2E1],"tree_param":{"num_deleted":"0","num_feature":"4","num_nodes":"7","size_leaf_vector":"1"}},{"base_weights":[1.3000924E-4,-4.6138949E-4,1.8618568E-3,-9.304054E-5,-6.778383E-3,-3.6179125E-3,2.578186E-3],"categories":[],"categories_nodes":[],"categories_segments":[],"categories_sizes":[],"default_left":[0,0,0,0,0,0,0],"id":108,"left_children":[1,3,5,-1,-1,-1,-1],"loss_changes":[1.2478876E-4,2.1111341E-4,1.3101257E-4,0E0,0E0,0E0,0E0],"parents":[2147483647,0,0,1,1,2,2],"right_children":[2,4,6,-1,-1,-1,-1],"split_conditions":[6.4E0,5.5E0,4.6E0,-9.304054E-5,-6.778383E-3,-3.6179125E-3,2.578186E-3],"split_indices":[0,2,2,0,0,0,0],"split_type":[0,0,0,0,0,0,0],"sum_hessian":[1.2E2,9E1,3E1,8.6E1,4E0,3E0,2.7E1],"tree_param":{"num_deleted":"0","num_feature":"4","num_nodes":"7","size_leaf_vector":"1"}},{"base_weights":[-6.5392735E-5,6.450481E-4,-1.0531556E-3,-4.4222985E-4,3.4397184E-3,9.491354E-3,-1.4538729E-3],"categories":[],"categories_nodes":[],"categories_segments":[],"categories_sizes":[],"default_left":[0,0,0,0,0,0,0],"id":109,"left_children":[1,3,5,-1,-1,-1,-1],"loss_changes":[8.5590735E-5,2.1726057E-4,2.2929296E-4,0E0,0E0,0E0,0E0],"parents":[2147483647,0,0,1,1,2,2],"right_children":[2,4,6,-1,-1,-1,-1],"split_conditions":[1.5E0,1.3E0,4.3E0,-4.4222985E-4,3.4397184E-3,9.491354E-3,-1.4538729E-3],"split_indices":[3,3,2,0,0,0,0],"split_type":[0,0,0,0,0,0,0],"sum_hessian":[1.2E2,7E1,5E1,5.1E1,1.9E1,1E0,4.9E1],"tree_param":{"num_deleted":"0","num_feature":"4","num_nodes":"7","size_leaf_vector":"1"}},{"base_weights":[9.1202004E-5,-6.078756E-4,1.8263033E-3,6.775318E-6,-5.935603E-3,3.3709854E-3,-1.4152527E-3],"categories":[],"categories_nodes":[],"categories_segments":[],"categories_sizes":[],"default_left":[0,0,0,0,0,0,0],"id":110,"left_children":[1,3,5,-1,-1,-1,-1],"loss_changes":[1.4787959E-4,2.8493843E-4,1.8002186E-4,0E0,0E0,0E0,0E0],"parents":[2147483647,0,0,1,1,2,2],"right_children":[2,4,6,-1,-1,-1,-1],"split_conditions":[1.7E0,4.8E0,3.2E0,6.775318E-6,-5.935603E-3,3.3709854E-3,-1.4152527E-3],"split_indices":[3,2,1,0,0,0,0],"split_type":[0,0,0,0,0,0,0],"sum_hessian":[1.2E2,8.6E1,3.4E1,7.8E1,8E0,2.3E1,1.1E1],"tree_param":{"num_deleted":"0","num_feature":"4","num_nodes":"7","size_leaf_vector":"1"}},{"base_weights":[-3.284717E-5,-6.8310305E-4,1.0805428E-3,-2.3852423E-5,-4.252056E-3,-7.152701E-4,4.7198534E-3],"categories":[],"categories_nodes":[],"categories_segments":[],"categories_sizes":[],"default_left":[0,0,0,0,0,0,0],"id":111,"left_children":[1,3,5,-1,-1,-1,-1],"loss_changes":[8.834071E-5,1.8106685E-4,2.9747444E-4,0E0,0E0,0E0,0E0],"parents":[2147483647,0,0,1,1,2,2],"right_children":[2,4,6,-1,-1,-1,-1],"split_conditions":[3.2E0,2E0,6E0,-2.3852423E-5,-4.252056E-3,-7.152701E-4,4.7198534E-3],"split_indices":[1,3,0,0,0,0,0],"split_type":[0,0,0,0,0,0,0],"sum_hessian":[1.2E2,7.6E1,4.4E1,6.5E1,1.1E1,3E1,1.4E1],"tree_param":{"num_deleted":"0","num_feature":"4","num_nodes":"7","size_leaf_vector":"1"}},{"base_weights":[-2.2518975E-6,1.1366431E-3,-6.9155346E-4,7.6491904E-4,8.932114E-3,-4.5437133E-3,-2.9645817E-4],"categories":[],"categories_nodes":[],"categories_segments":[],"categories_sizes":[],"default_left":[0,0,0,0,0,0,0],"id":112,"left_children":[1,3,5,-1,-1,-1,-1],"loss_changes":[9.577615E-5,1.264648E-4,1.1432271E-4,0E0,0E0,0E0,0E0],"parents":[2147483647,0,0,1,1,2,2],"right_children":[2,4,6,-1,-1,-1,-1],"split_conditions":[1.1E0,3.8E0,1.3E0,7.6491904E-4,8.932114E-3,-4.5437133E-3,-2.9645817E-4],"split_indices":[3,2,3,0,0,0,0],"split_type":[0,0,0,0,0,0,0],"sum_hessian":[1.2E2,4.5E1,7.5E1,4.4E1,1E0,6E0,6.9E1],"tree_param":{"num_deleted":"0","num_feature":"4","num_nodes":"7","size_leaf_vector":"1"}},{"base_weights":[4.012783E-5,1.3391355E-4,-3.6934149E-3,2.5376282E-4,-2.6494027E-3,4.1541978E-4,-5.955542E-3],"categories":[],"categories_nodes":[],"categories_segments":[],"categories_sizes":[],"default_left":[0,0,0,0,0,0,0],"id":113,"left_children":[1,3,5,-1,-1,-1,-1],"loss_changes":[4.286311E-5,4.036815E-5,3.0358173E-5,0E0,0E0,0E0,0E0],"parents":[2147483647,0,0,1,1,2,2],"right_children":[2,4,6,-1,-1,-1,-1],"split_conditions":[4E0,7.4E0,5.6E0,2.5376282E-4,-2.6494027E-3,4.1541978E-4,-5.955542E-3],"split_indices":[1,0,0,0,0,0,0],"split_type":[0,0,0,0,0,0,0],"sum_hessian":[1.2E2,1.18E2,2E0,1.14E2,4E0,1E0,1E0],"tree_param":{"num_deleted":"0","num_feature":"4","num_nodes":"7","size_leaf_vector":"1"}},{"base_weights":[-6.558286E-5,-3.8058686E-4,1.1000312E-3,-6.9440826E-4,7.010907E-3,6.135583E-3,-1.0780975E-3],"categories":[],"categories_nodes":[],"categories_segments":[],"categories_sizes":[],"default_left":[0,0,0,0,0,0,0],"id":114,"left_children":[1,3,5,-1,-1,-1,-1],"loss_changes":[4.48466E-5,2.2755086E-4,2.9178482E-4,0E0,0E0,0E0,0E0],"parents":[2147483647,0,0,1,1,2,2],"right_children":[2,4,6,-1,-1,-1,-1],"split_conditions":[1.9E0,7E0,5.2E0,-6.9440826E-4,7.010907E-3,6.135583E-3,-1.0780975E-3],"split_indices":[3,0,2,0,0,0,0],"split_type":[0,0,0,0,0,0,0],"sum_hessian":[1.2E2,9.5E1,2.5E1,9.2E1,3E0,7E0,1.8E1],"tree_param":{"num_deleted":"0","num_feature":"4","num_nodes":"7","size_leaf_vector":"1"}},{"base_weights":[9.4002535E-5,7.543694E-4,-1.3138041E-3,3.0816204E-4,1.2550513E-2,-5.663506E-3,1.3485694E-3],"categories":[],"categories_nodes":[],"categories_segments":[],"categories_sizes":[],"default_left":[0,0,0,0,0,0,0],"id":115,"left_children":[1,3,5,-1,-1,-1,-1],"loss_changes":[1.1348102E-4,4.3300513E-4,4.5927835E-4,0E0,0E0,0E0,0E0],"parents":[2147483647,0,0,1,1,2,2],"right_children":[2,4,6,-1,-1,-1,-1],"split_conditions":[1.6E0,5.1E0,3E0,3.0816204E-4,1.2550513E-2,-5.663506E-3,1.3485694E-3],"split_indices":[3,2,1,0,0,0,0],"split_type":[0,0,0,0,0,0,0],"sum_hessian":[1.2E2,8.2E1,3.8E1,8E1,2E0,1.4E1,2.4E1],"tree_param":{"num_deleted":"0","num_feature":"4","num_nodes":"7","size_leaf_vector":"1"}},{"base_weights":[7.0608505E-5,7.0084725E-4,-7.512232E-4,2.4753658E-4,8.005261E-3,-1.418974E-2,5.400765E-5],"categories":[],"categories_nodes":[],"categories_segments":[],"categories_sizes":[],"default_left":[0,0,0,0,0,0,0],"id":116,"left_children":[1,3,5,-1,-1,-1,-1],"loss_changes":[6.3198466E-5,2.2648905E-4,5.742851E-4,0E0,0E0,0E0,0E0],"parents":[2147483647,0,0,1,1,2,2],"right_children":[2,4,6,-1,-1,-1,-1],"split_conditions":[5.9E0,5.1E0,6E0,2.4753658E-4,8.005261E-3,-1.418974E-2,5.400765E-5],"split_indices":[0,2,0,0,0,0,0],"split_type":[0,0,0,0,0,0,0],"sum_hessian":[1.2E2,6.8E1,5.2E1,6.5E1,3E0,2E0,5E1],"tree_param":{"num_deleted":"0","num_feature":"4","num_nodes":"7","size_leaf_vector":"1"}},{"base_weights":[-4.862343E-5,1.5549806E-4,-2.3299218E-3,-3.4202903E-4,1.8143195E-3,-9.038369E-3,4.7698617E-4],"categories":[],"categories_nodes":[],"categories_segments":[],"categories_sizes":[],"default_left":[0,0,0,0,0,0,0],"id":117,"left_children":[1,3,5,-1,-1,-1,-1],"loss_changes":[5.6707402E-5,9.305512E-5,1.9261111E-4,0E0,0E0,0E0,0E0],"parents":[2147483647,0,0,1,1,2,2],"right_children":[2,4,6,-1,-1,-1,-1],"split_conditions":[2.3E0,1.7E0,5.2E0,-3.4202903E-4,1.8143195E-3,-9.038369E-3,4.7698617E-4],"split_indices":[3,3,2,0,0,0,0],"split_type":[0,0,0,0,0,0,0],"sum_hessian":[1.2E2,1.11E2,9E0,8.6E1,2.5E1,2E0,7E0],"tree_param":{"num_deleted":"0","num_feature":"4","num_nodes":"7","size_leaf_vector":"1"}},{"base_weights":[-5.8601778E-5,8.1802683E-4,-1.0572379E-3,4.484792E-4,1.2234539E-2,6.29125E-3,-1.438842E-3],"categories":[],"categories_nodes":[],"categories_segments":[],"categories_sizes":[],"default_left":[0,0,0,0,0,0,0],"id":118,"left_children":[1,3,5,-1,-1,-1,-1],"loss_changes":[1.0679224E-4,2.687445E-4,1.6889228E-4,0E0,0E0,0E0,0E0],"parents":[2147483647,0,0,1,1,2,2],"right_children":[2,4,6,-1,-1,-1,-1],"split_conditions":[4.5E0,1.5E0,1.4E0,4.484792E-4,1.2234539E-2,6.29125E-3,-1.438842E-3],"split_indices":[2,3,3,0,0,0,0],"split_type":[0,0,0,0,0,0,0],"sum_hessian":[1.2E2,6.4E1,5.6E1,6.3E1,1E0,2E0,5.4E1],"tree_param":{"num_deleted":"0","num_feature":"4","num_nodes":"7","size_leaf_vector":"1"}},{"base_weights":[1.4492981E-4,-2.831784E-4,1.2049436E-3,1.0448606E-4,-6.6617727E-3,3.2010626E-3,-2.887706E-3],"categories":[],"categories_nodes":[],"categories_segments":[],"categories_sizes":[],"default_left":[0,0,0,0,0,0,0],"id":119,"left_children":[1,3,5,-1,-1,-1,-1],"loss_changes":[5.525109E-5,2.1582567E-4,2.9517323E-4,0E0,0E0,0E0,0E0],"parents":[2147483647,0,0,1,1,2,2],"right_children":[2,4,6,-1,-1,-1,-1],"split_conditions":[1.7E0,1.6E0,3.2E0,1.0448606E-4,-6.6617727E-3,3.2010626E-3,-2.887706E-3],"split_indices":[3,3,1,0,0,0,0],"split_type":[0,0,0,0,0,0,0],"sum_hessian":[1.2E2,8.6E1,3.4E1,8.2E1,4E0,2.3E1,1.1E1],"tree_param":{"num_deleted":"0","num_feature":"4","num_nodes":"7","size_leaf_vector":"1"}},{"base_weights":[-5.1578532E-5,-5.405135E-4,7.861897E-4,-7.8498665E-4,3.136897E-3,-3.2947073E-4,3.0394753E-3],"categories":[],"categories_nodes":[],"categories_segments":[],"categories_sizes":[],"default_left":[0,0,0,0,0,0,0],"id":120,"left_children":[1,3,5,-1,-1,-1,-1],"loss_changes":[4.998826E-5,7.1687595E-5,1.14126975E-4,0E0,0E0,0E0,0E0],"parents":[2147483647,0,0,1,1,2,2],"right_children":[2,4,6,-1,-1,-1,-1],"split_conditions":[3.2E0,7.2E0,6E0,-7.8498665E-4,3.136897E-3,-3.2947073E-4,3.0394753E-3],"split_indices":[1,0,0,0,0,0,0],"split_type":[0,0,0,0,0,0,0],"sum_hessian":[1.2E2,7.6E1,4.4E1,7.2E1,4E0,3E1,1.4E1],"tree_param":{"num_deleted":"0","num_feature":"4","num_nodes":"7","size_leaf_vector":"1"}},{"base_weights":[4.183346E-5,5.254959E-4,-9.88572E-4,1.02597725E-4,5.9355893E-3,3.700052E-3,-1.953172E-3],"categories":[],"categories_nodes":[],"categories_segments":[],"categories_sizes":[],"default_left":[0,0,0,0,0,0,0],"id":121,"left_children":[1,3,5,-1,-1,-1,-1],"loss_changes":[6.082207E-5,1.8928827E-4,1.8361004E-4,0E0,0E0,0E0,0E0],"parents":[2147483647,0,0,1,1,2,2],"right_children":[2,4,6,-1,-1,-1,-1],"split_conditions":[1.6E0,4.9E0,4.9E0,1.02597725E-4,5.9355893E-3,3.700052E-3,-1.953172E-3],"split_indices":[3,2,2,0,0,0,0],"split_type":[0,0,0,0,0,0,0],"sum_hessian":[1.2E2,8.2E1,3.8E1,7.7E1,5E0,6E0,3.2E1],"tree_param":{"num_deleted":"0","num_feature":"4","num_nodes":"7","size_leaf_vector":"1"}},{"base_weights":[6.432125E-5,5.6092086E-4,-5.0310505E-4,3.6949004E-4,6.4062476E-3,-3.5919657E-3,2.3052414E-4],"categories":[],"categories_nodes":[],"categories_segments":[],"categories_sizes":[],"default_left":[0,0,0,0,0,0,0],"id":122,"left_children":[1,3,5,-1,-1,-1,-1],"loss_changes":[3.4378027E-5,7.036639E-5,1.2999449E-4,0E0,0E0,0E0,0E0],"parents":[2147483647,0,0,1,1,2,2],"right_children":[2,4,6,-1,-1,-1,-1],"split_conditions":[4.5E0,1.5E0,6E0,3.6949004E-4,6.4062476E-3,-3.5919657E-3,2.3052414E-4],"split_indices":[2,3,0,0,0,0,0],"split_type":[0,0,0,0,0,0,0],"sum_hessian":[1.2E2,6.4E1,5.6E1,6.3E1,1E0,1E1,4.6E1],"tree_param":{"num_deleted":"0","num_feature":"4","num_nodes":"7","size_leaf_vector":"1"}},{"base_weights":[2.820548E-5,-3.8219595E-4,1.542449E-3,-6.2264525E-4,5.3038E-3,4.7733677E-3,-7.7521056E-4],"categories":[],"categories_nodes":[],"categories_segments":[],"categories_sizes":[],"default_left":[0,0,0,0,0,0,0],"id":123,"left_children":[1,3,5,-1,-1,-1,-1],"loss_changes":[7.578469E-5,1.34553E-4,1.9839278E-4,0E0,0E0,0E0,0E0],"parents":[2147483647,0,0,1,1,2,2],"right_children":[2,4,6,-1,-1,-1,-1],"split_conditions":[1.9E0,5.7E0,6.5E0,-6.2264525E-4,5.3038E-3,4.7733677E-3,-7.7521056E-4],"split_indices":[3,2,0,0,0,0,0],"split_type":[0,0,0,0,0,0,0],"sum_hessian":[1.2E2,9.5E1,2.5E1,9.2E1,3E0,1E1,1.5E1],"tree_param":{"num_deleted":"0","num_feature":"4","num_nodes":"7","size_leaf_vector":"1"}},{"base_weights":[7.171877E-5,7.152028E-4,-8.884048E-4,9.206501E-4,-3.0589253E-3,-2.9494057E-3,7.626819E-4],"categories":[],"categories_nodes":[],"categories_segments":[],"categories_sizes":[],"default_left":[0,0,0,0,0,0,0],"id":124,"left_children":[1,3,5,-1,-1,-1,-1],"loss_changes":[7.539212E-5,5.9419253E-5,1.6899113E-4,0E0,0E0,0E0,0E0],"parents":[2147483647,0,0,1,1,2,2],"right_children":[2,4,6,-1,-1,-1,-1],"split_conditions":[4.6E0,6.4E0,3E0,9.206501E-4,-3.0589253E-3,-2.9494057E-3,7.626819E-4],"split_indices":[2,0,1,0,0,0,0],"split_type":[0,0,0,0,0,0,0],"sum_hessian":[1.2E2,7.2E1,4.8E1,6.9E1,3E0,2.1E1,2.7E1],"tree_param":{"num_deleted":"0","num_feature":"4","num_nodes":"7","size_leaf_vector":"1"}},{"base_weights":[-3.5746834E-5,-9.1688713E-4,3.7871362E-4,-1.2447026E-4,-5.254435E-3,2.7297833E-3,-5.7097892E-5],"categories":[],"categories_nodes":[],"categories_segments":[],"categories_sizes":[],"default_left":[0,0,0,0,0,0,0],"id":125,"left_children":[1,3,5,-1,-1,-1,-1],"loss_changes":[4.4536177E-5,1.3339467E-4,8.5199594E-5,0E0,0E0,0E0,0E0],"parents":[2147483647,0,0,1,1,2,2],"right_children":[2,4,6,-1,-1,-1,-1],"split_conditions":[5.4E0,3.7E0,4E0,-1.2447026E-4,-5.254435E-3,2.7297833E-3,-5.7097892E-5],"split_indices":[0,1,2,0,0,0,0],"split_type":[0,0,0,0,0,0,0],"sum_hessian":[1.2E2,3.8E1,8.2E1,3.3E1,5E0,1.2E1,7E1],"tree_param":{"num_deleted":"0","num_feature":"4","num_nodes":"7","size_leaf_vector":"1"}},{"base_weights":[-2.2381622E-5,-2.0998963E-3,1.8369984E-4,-5.5776944E-4,-4.659176E-3,2.9739513E-4,-4.0084617E-3],"categories":[],"categories_nodes":[],"categories_segments":[],"categories_sizes":[],"default_left":[0,0,0,0,0,0,0],"id":126,"left_children":[1,3,5,-1,-1,-1,-1],"loss_changes":[5.2190357E-5,4.0815325E-5,5.409792E-5,0E0,0E0,0E0,0E0],"parents":[2147483647,0,0,1,1,2,2],"right_children":[2,4,6,-1,-1,-1,-1],"split_conditions":[2.5E0,2.4E0,4E0,-5.5776944E-4,-4.659176E-3,2.9739513E-4,-4.0084617E-3],"split_indices":[1,1,1,0,0,0,0],"split_type":[0,0,0,0,0,0,0],"sum_hessian":[1.2E2,1E1,1.1E2,7E0,3E0,1.08E2,2E0],"tree_param":{"num_deleted":"0","num_feature":"4","num_nodes":"7","size_leaf_vector":"1"}},{"base_weights":[-7.377768E-5,-2.4056332E-3,2.6504847E-5,3.4056074E-4,-3.177322E-3,2.4451484E-4,-1.0430694E-3],"categories":[],"categories_nodes":[],"categories_segments":[],"categories_sizes":[],"default_left":[0,0,0,0,0,0,0],"id":127,"left_children":[1,3,5,-1,-1,-1,-1],"loss_changes":[2.8358929E-5,1.1678107E-5,2.7536857E-5,0E0,0E0,0E0,0E0],"parents":[2147483647,0,0,1,1,2,2],"right_children":[2,4,6,-1,-1,-1,-1],"split_conditions":[2E-1,4.4E0,5.6E0,3.4056074E-4,-3.177322E-3,2.4451484E-4,-1.0430694E-3],"split_indices":[3,0,2,0,0,0,0],"split_type":[0,0,0,0,0,0,0],"sum_hessian":[1.2E2,4E0,1.16E2,1E0,3E0,9.7E1,1.9E1],"tree_param":{"num_deleted":"0","num_feature":"4","num_nodes":"7","size_leaf_vector":"1"}},{"base_weights":[-3.0040963E-5,-3.586663E-4,6.971845E-4,8.556447E-5,-4.0700966E-3,1.386859E-3,-1.6791953E-3],"categories":[],"categories_nodes":[],"categories_segments":[],"categories_sizes":[],"default_left":[0,0,0,0,0,0,0],"id":128,"left_children":[1,3,5,-1,-1,-1,-1],"loss_changes":[2.9167208E-5,1.3884171E-4,6.460809E-5,0E0,0E0,0E0,0E0],"parents":[2147483647,0,0,1,1,2,2],"right_children":[2,4,6,-1,-1,-1,-1],"split_conditions":[6.3E0,6.1E0,3.3E0,8.556447E-5,-4.0700966E-3,1.386859E-3,-1.6791953E-3],"split_indices":[0,0,1,0,0,0,0],"split_type":[0,0,0,0,0,0,0],"sum_hessian":[1.2E2,8.3E1,3.7E1,7.5E1,8E0,2.9E1,8E0],"tree_param":{"num_deleted":"0","num_feature":"4","num_nodes":"7","size_leaf_vector":"1"}},{"base_weights":[-3.536193E-5,-4.604931E-4,5.571807E-4,-2.8105092E-5,-1.025192E-2,-3.5035808E-3,1.3941498E-3],"categories":[],"categories_nodes":[],"categories_segments":[],"categories_sizes":[],"default_left":[0,0,0,0,0,0,0],"id":129,"left_children":[1,3,5,-1,-1,-1,-1],"loss_changes":[3.0737487E-5,3.0030427E-4,1.7821985E-4,0E0,0E0,0E0,0E0],"parents":[2147483647,0,0,1,1,2,2],"right_children":[2,4,6,-1,-1,-1,-1],"split_conditions":[6E0,5.9E0,2.8E0,-2.8105092E-5,-1.025192E-2,-3.5035808E-3,1.3941498E-3],"split_indices":[0,0,1,0,0,0,0],"split_type":[0,0,0,0,0,0,0],"sum_hessian":[1.2E2,7E1,5E1,6.8E1,2E0,8E0,4.2E1],"tree_param":{"num_deleted":"0","num_feature":"4","num_nodes":"7","size_leaf_vector":"1"}},{"base_weights":[-1.02374055E-4,3.0540442E-4,-1.6040802E-3,-3.6309136E-4,1.2503758E-3,4.5687556E-3,-2.0337438E-3],"categories":[],"categories_nodes":[],"categories_segments":[],"categories_sizes":[],"default_left":[0,0,0,0,0,0,0],"id":130,"left_children":[1,3,5,-1,-1,-1,-1],"loss_changes":[7.458587E-5,6.109811E-5,7.825001E-5,0E0,0E0,0E0,0E0],"parents":[2147483647,0,0,1,1,2,2],"right_children":[2,4,6,-1,-1,-1,-1],"split_conditions":[6.5E0,4.2E0,2.6E0,-3.6309136E-4,1.2503758E-3,4.5687556E-3,-2.0337438E-3],"split_indices":[0,2,1,0,0,0,0],"split_type":[0,0,0,0,0,0,0],"sum_hessian":[1.2E2,9.5E1,2.5E1,5.6E1,3.9E1,1E0,2.4E1],"tree_param":{"num_deleted":"0","num_feature":"4","num_nodes":"7","size_leaf_vector":"1"}},{"base_weights":[2.828465E-5,3.0086488E-3,-7.2984345E-5,-1.5659473E-4,3.1842787E-3],"categories":[],"categories_nodes":[],"categories_segments":[],"categories_sizes":[],"default_left":[0,0,0,0,0],"id":131,"left_children":[1,-1,3,-1,-1],"loss_changes":[3.6739617E-5,0E0,3.2634885E-5,0E0,0E0],"parents":[2147483647,0,0,2,2],"right_children":[2,-1,4,-1,-1],"split_conditions":[2.3E0,3.0086488E-3,6.6E0,-1.5659473E-4,3.1842787E-3],"split_indices":[1,0,2,0,0],"split_type":[0,0,0,0,0],"sum_hessian":[1.2E2,3E0,1.17E2,1.15E2,2E0],"tree_param":{"num_deleted":"0","num_feature":"4","num_nodes":"5","size_leaf_vector":"1"}},{"base_weights":[4.9905717E-5,5.1236956E-4,-2.7194287E-4,1.7285442E-4,5.7738223E-3,2.2782446E-3,-6.72418E-4],"categories":[],"categories_nodes":[],"categories_segments":[],"categories_sizes":[],"default_left":[0,0,0,0,0,0,0],"id":132,"left_children":[1,3,5,-1,-1,-1,-1],"loss_changes":[1.814938E-5,8.8319124E-5,7.506456E-5,0E0,0E0,0E0,0E0],"parents":[2147483647,0,0,1,1,2,2],"right_children":[2,4,6,-1,-1,-1,-1],"split_conditions":[4E0,3.9E0,2.6E0,1.7285442E-4,5.7738223E-3,2.2782446E-3,-6.72418E-4],"split_indices":[2,2,1,0,0,0,0],"split_type":[0,0,0,0,0,0,0],"sum_hessian":[1.2E2,4.9E1,7.1E1,4.7E1,2E0,9E0,6.2E1],"tree_param":{"num_deleted":"0","num_feature":"4","num_nodes":"7","size_leaf_vector":"1"}},{"base_weights":[6.2419924E-5,-1.1877393E-3,3.21736E-4,-2.614479E-3,6.431222E-4,2.8309325E-5,1.2126208E-3],"categories":[],"categories_nodes":[],"categories_segments":[],"categories_sizes":[],"default_left":[0,0,0,0,0,0,0],"id":133,"left_children":[1,3,5,-1,-1,-1,-1],"loss_changes":[3.960869E-5,5.6536846E-5,2.6368014E-5,0E0,0E0,0E0,0E0],"parents":[2147483647,0,0,1,1,2,2],"right_children":[2,4,6,-1,-1,-1,-1],"split_conditions":[2.7E0,4.1E0,1.9E0,-2.614479E-3,6.431222E-4,2.8309325E-5,1.2126208E-3],"split_indices":[1,2,3,0,0,0,0],"split_type":[0,0,0,0,0,0,0],"sum_hessian":[1.2E2,2E1,1E2,1.1E1,9E0,7.6E1,2.4E1],"tree_param":{"num_deleted":"0","num_feature":"4","num_nodes":"7","size_leaf_vector":"1"}},{"base_weights":[-6.022714E-6,4.820215E-4,-5.624587E-4,2.4986418E-4,7.670045E-3,4.219731E-3,-8.130789E-4],"categories":[],"categories_nodes":[],"categories_segments":[],"categories_sizes":[],"default_left":[0,0,0,0,0,0,0],"id":134,"left_children":[1,3,5,-1,-1,-1,-1],"loss_changes":[3.3130527E-5,1.0655243E-4,7.1746224E-5,0E0,0E0,0E0,0E0],"parents":[2147483647,0,0,1,1,2,2],"right_children":[2,4,6,-1,-1,-1,-1],"split_conditions":[4.5E0,1.5E0,1.4E0,2.4986418E-4,7.670045E-3,4.219731E-3,-8.130789E-4],"split_indices":[2,3,3,0,0,0,0],"split_type":[0,0,0,0,0,0,0],"sum_hessian":[1.2E2,6.4E1,5.6E1,6.3E1,1E0,2E0,5.4E1],"tree_param":{"num_deleted":"0","num_feature":"4","num_nodes":"7","size_leaf_vector":"1"}},{"base_weights":[9.3611605E-5,-2.4544387E-4,5.637945E-4,1.6672256E-3,-1.0282011E-3,-3.4371417E-3,1.3880882E-3],"categories":[],"categories_nodes":[],"categories_segments":[],"categories_sizes":[],"default_left":[0,0,0,0,0,0,0],"id":135,"left_children":[1,3,5,-1,-1,-1,-1],"loss_changes":[1.9427967E-5,1.0801231E-4,1.7296632E-4,0E0,0E0,0E0,0E0],"parents":[2147483647,0,0,1,1,2,2],"right_children":[2,4,6,-1,-1,-1,-1],"split_conditions":[6E0,2.8E0,2.8E0,1.6672256E-3,-1.0282011E-3,-3.4371417E-3,1.3880882E-3],"split_indices":[0,1,1,0,0,0,0],"split_type":[0,0,0,0,0,0,0],"sum_hessian":[1.2E2,7E1,5E1,2E1,5E1,8E0,4.2E1],"tree_param":{"num_deleted":"0","num_feature":"4","num_nodes":"7","size_leaf_vector":"1"}},{"base_weights":[-1.1652682E-5,1.0318124E-3,-5.2051793E-4,-6.619044E-4,1.6184481E-3,-1.3378574E-4,-2.1074265E-3],"categories":[],"categories_nodes":[],"categories_segments":[],"categories_sizes":[],"default_left":[0,0,0,0,0,0,0],"id":136,"left_children":[1,3,5,-1,-1,-1,-1],"loss_changes":[6.478603E-5,4.0815048E-5,5.004216E-5,0E0,0E0,0E0,0E0],"parents":[2147483647,0,0,1,1,2,2],"right_children":[2,4,6,-1,-1,-1,-1],"split_conditions":[3E0,3.2E0,3.2E0,-6.619044E-4,1.6184481E-3,-1.3378574E-4,-2.1074265E-3],"split_indices":[2,1,1,0,0,0,0],"split_type":[0,0,0,0,0,0,0],"sum_hessian":[1.2E2,3.9E1,8.1E1,1E1,2.9E1,6.6E1,1.5E1],"tree_param":{"num_deleted":"0","num_feature":"4","num_nodes":"7","size_leaf_vector":"1"}},{"base_weights":[-1.0628768E-5,-4.726261E-4,6.327524E-4,-7.2366337E-4,3.913164E-3,6.007254E-3,-8.2025064E-5],"categories":[],"categories_nodes":[],"categories_segments":[],"categories_sizes":[],"default_left":[0,0,0,0,0,0,0],"id":137,"left_children":[1,3,5,-1,-1,-1,-1],"loss_changes":[3.6265144E-5,8.1002596E-5,1.9641293E-4,0E0,0E0,0E0,0E0],"parents":[2147483647,0,0,1,1,2,2],"right_children":[2,4,6,-1,-1,-1,-1],"split_conditions":[6E0,5.1E0,6.1E0,-7.2366337E-4,3.913164E-3,6.007254E-3,-8.2025064E-5],"split_indices":[0,2,0,0,0,0,0],"split_type":[0,0,0,0,0,0,0],"sum_hessian":[1.2E2,7E1,5E1,6.7E1,3E0,5E0,4.5E1],"tree_param":{"num_deleted":"0","num_feature":"4","num_nodes":"7","size_leaf_vector":"1"}},{"base_weights":[7.5327145E-5,6.991675E-4,-4.3790488E-4,1.100951E-3,-2.765556E-3,-1.1498213E-3,8.8552135E-4],"categories":[],"categories_nodes":[],"categories_segments":[],"categories_sizes":[],"default_left":[0,0,0,0,0,0,0],"id":138,"left_children":[1,3,5,-1,-1,-1,-1],"loss_changes":[3.904733E-5,7.9608515E-5,6.414351E-5,0E0,0E0,0E0,0E0],"parents":[2147483647,0,0,1,1,2,2],"right_children":[2,4,6,-1,-1,-1,-1],"split_conditions":[5.7E0,1.4E0,5.3E0,1.100951E-3,-2.765556E-3,-1.1498213E-3,8.8552135E-4],"split_indices":[0,3,2,0,0,0,0],"split_type":[0,0,0,0,0,0,0],"sum_hessian":[1.2E2,5.4E1,6.6E1,4.9E1,5E0,4.3E1,2.3E1],"tree_param":{"num_deleted":"0","num_feature":"4","num_nodes":"7","size_leaf_vector":"1"}},{"base_weights":[-1.5936133E-5,2.8732372E-4,-7.3994754E-4,7.982134E-4,-7.4436335E-4,-2.8602586E-3,-3.199233E-5],"categories":[],"categories_nodes":[],"categories_segments":[],"categories_sizes":[],"default_left":[0,0,0,0,0,0,0],"id":139,"left_children":[1,3,5,-1,-1,-1,-1],"loss_changes":[2.6779799E-5,4.5922894E-5,5.3947562E-5,0E0,0E0,0E0,0E0],"parents":[2147483647,0,0,1,1,2,2],"right_children":[2,4,6,-1,-1,-1,-1],